<?xml version="1.0"?>
<opencv_storage>
<opencv_ml_svm>
  <format>3</format>
  <svmType>C_SVC</svmType>
  <kernel>
    <type>LINEAR</type></kernel>
  <C>1.0000000000000001e-01</C>
  <term_criteria><iterations>100</iterations></term_criteria>
  <var_count>2500</var_count>
  <class_count>2</class_count>
  <class_labels type_id="opencv-matrix">
    <rows>2</rows>
    <cols>1</cols>
    <dt>i</dt>
    <data>
      0 1</data></class_labels>
  <sv_total>1</sv_total>
  <support_vectors>
    <_>
      -5.15092252e-05 -3.82763392e-05 3.91667118e-06 6.81473011e-06
      3.08077651e-05 4.71929707e-05 4.98463305e-05 5.14997882e-05
      3.11079202e-05 5.28627752e-05 5.69430740e-05 4.22715566e-05
      2.81684534e-05 2.60311413e-06 -3.71333226e-06 1.49485274e-07
      1.13432661e-05 1.04811979e-05 3.42153635e-06 1.14994173e-05
      2.63907032e-06 -1.11242325e-05 -9.57698740e-06 -3.18148955e-06
      8.74832858e-06 3.88749731e-06 2.01254425e-05 5.26357253e-05
      6.67389977e-05 7.01916142e-05 7.58636452e-05 7.95383748e-05
      7.63152784e-05 4.76077694e-05 4.98396257e-05 3.73454168e-05
      3.10679898e-05 3.49468901e-05 1.60533436e-05 8.69413725e-06
      -2.98854229e-05 -4.50015723e-05 -4.93149273e-05 -6.08159389e-05
      -4.36562041e-05 -3.63684776e-05 -7.73520787e-06 2.95247464e-05
      2.08792335e-05 -2.36268261e-05 -6.81048114e-05 -5.89403498e-05
      -1.34085167e-05 -1.62010724e-06 1.17928466e-05 3.15858088e-05
      1.29068221e-05 3.88802218e-05 1.94517797e-05 5.30086218e-05
      5.23651215e-05 2.18815512e-05 1.13293654e-05 -2.24595306e-06
      -1.38478681e-05 -1.74671004e-05 -3.98066327e-08 -3.72850809e-06
      5.82180803e-07 -1.45750505e-06 -1.67812195e-05 -2.34018371e-05
      -2.88344509e-05 -1.89471448e-05 -8.02099566e-06 -1.22906640e-05
      9.91722209e-06 7.26403014e-05 8.21974463e-05 8.32480437e-05
      8.52850935e-05 8.92157623e-05 8.10518468e-05 6.71027665e-05
      5.61051056e-05 3.71404785e-05 4.03162194e-05 5.13808482e-05
      4.10434186e-05 2.77371892e-05 -8.83131543e-06 -2.79938613e-05
      -3.00337215e-05 -4.69496299e-05 -2.64607024e-05 -9.71999361e-06
      1.02683944e-05 5.82929933e-05 6.69908113e-05 1.33574813e-05
      -9.50189715e-05 -6.47183260e-05 -3.00683878e-05 -1.21670018e-05
      -5.91567823e-06 1.26861560e-05 -1.27504072e-05 4.17229694e-06
      1.00263333e-05 4.62776588e-05 3.06677975e-05 5.67780671e-06
      -2.06086133e-06 -1.54984118e-05 -2.05250526e-05 -2.06983295e-05
      5.51947835e-07 -1.02816130e-05 -1.24256467e-05 -1.65414513e-05
      -3.48781214e-05 -2.81365556e-05 -3.46533670e-05 -2.55795530e-05
      -3.08451126e-05 -3.52266288e-05 -1.60728214e-05 4.80101553e-05
      5.74789119e-05 7.34098794e-05 7.00254823e-05 7.34810019e-05
      5.98297556e-05 3.96415053e-05 3.13561432e-05 2.08237634e-05
      1.83321226e-05 2.02025203e-05 3.78818877e-05 1.64457433e-05
      -1.85522040e-05 -3.14951249e-05 -3.09091265e-05 -4.59831354e-05
      -3.94741728e-05 -8.63322293e-06 -2.30168689e-06 6.15418539e-05
      7.71781561e-05 1.12259095e-05 -9.12566247e-05 -4.76610840e-05
      -2.89040199e-05 -2.39748279e-05 -8.29873625e-06 -3.23447102e-06
      -1.75158166e-05 -8.05502225e-07 -1.26574032e-05 5.03869996e-05
      3.09102470e-05 4.55218787e-06 9.27500082e-07 2.02563479e-06
      -2.35439638e-05 -2.09477821e-05 4.82649739e-06 -9.52207938e-06
      -2.49510977e-05 -4.13669586e-05 -3.97746771e-05 -4.33738751e-05
      -5.44699178e-05 -4.72807296e-05 -4.28798412e-05 -5.20340072e-05
      -3.18008570e-05 2.81282591e-05 4.88413898e-05 5.55211373e-05
      5.15740903e-05 4.43670324e-05 4.45301412e-05 3.12520897e-05
      2.38250796e-05 9.78519438e-06 3.90557625e-06 3.51898416e-06
      6.12106214e-06 -5.82649000e-06 -2.65753661e-05 -4.30163745e-05
      -4.36829396e-05 -4.20541364e-05 -3.48942704e-05 -1.81270570e-05
      -4.50702464e-06 5.24005773e-05 6.65003827e-05 2.08827478e-05
      -8.19879424e-05 -4.81578827e-05 -1.90991177e-05 -1.56094502e-05
      -9.25849417e-06 -4.79493337e-06 -2.53884955e-05 -3.76138860e-06
      -1.99777623e-05 2.01539569e-05 1.80577863e-05 -1.09447055e-05
      -2.02618485e-05 -2.29914913e-05 -2.97250208e-05 -4.15555478e-05
      -2.85791139e-05 -3.15928482e-05 -2.85448605e-05 -3.96390205e-05
      -5.19625464e-05 -4.47690982e-05 -3.84781633e-05 -2.36900069e-05
      -1.68351853e-05 -5.92352044e-05 -4.79622395e-05 2.36684755e-05
      3.07388509e-05 3.39355174e-05 3.46513334e-05 3.12493285e-05
      3.34819961e-05 3.19054489e-05 2.79508949e-05 1.85728277e-05
      5.42539556e-06 -2.49834511e-06 -1.25157358e-05 -2.10229318e-05
      -3.09814604e-05 -4.50149018e-05 -4.67873942e-05 -4.57116585e-05
      -3.96522009e-05 -3.17064478e-05 -2.02858773e-05 1.94452678e-05
      5.67119750e-05 2.55930063e-05 -7.50654362e-05 -4.50248372e-05
      -3.22577434e-05 -9.19727790e-06 -9.28495228e-06 -1.49109301e-05
      -1.12311864e-05 2.24674537e-07 -6.60465957e-06 2.16242770e-05
      -2.79900632e-06 -3.62152321e-07 -2.43632294e-05 -4.29285938e-05
      -4.45834521e-05 -3.74956217e-05 -2.22431772e-05 -1.37149973e-05
      -3.22865271e-05 -2.96697399e-05 1.03821885e-05 2.68403473e-05
      9.95113078e-06 -2.00274153e-05 2.82974652e-05 -2.56892454e-05
      -5.01208774e-07 2.37731747e-05 2.40179561e-05 2.19974554e-05
      2.40165573e-05 2.32767543e-05 1.94205531e-05 2.42300393e-05
      2.09509835e-05 1.07677288e-05 -5.35451704e-07 -7.25560994e-06
      -1.84231703e-05 -2.42355418e-05 -3.65521519e-05 -4.18708150e-05
      -4.87364268e-05 -5.30341749e-05 -4.93378502e-05 -4.36341361e-05
      -1.99945425e-05 9.91247180e-06 4.47164166e-05 2.61411551e-05
      -8.64035246e-05 -5.34061437e-05 -3.60878585e-05 -2.47492753e-05
      -1.18738999e-05 -2.08138608e-05 -2.30234491e-05 2.35400039e-05
      1.45246054e-06 3.97670192e-05 2.82381607e-05 1.78321607e-05
      1.37867801e-06 -2.98306204e-05 -3.65410051e-05 -4.33806163e-05
      -2.16724275e-05 -1.82319418e-05 -3.04710538e-05 -2.07851062e-05
      -1.10225064e-05 -3.54239601e-05 -5.73112484e-05 -6.97446594e-05
      -5.71797318e-05 -6.85409250e-05 -4.29977590e-05 1.90091105e-05
      2.28263452e-05 2.17064880e-05 2.99610256e-05 3.20478321e-05
      2.87950261e-05 2.28928930e-05 2.27104410e-05 2.11008792e-05
      4.13691077e-06 -1.27035776e-06 -1.54160261e-05 -2.03439049e-05
      -3.54360382e-05 -4.06747604e-05 -3.98810080e-05 -4.42840756e-05
      -4.14045935e-05 -3.04526820e-05 -8.58196381e-06 2.03469699e-05
      3.99288583e-05 3.01908767e-05 -8.29451965e-05 -5.31510486e-05
      -3.49252550e-05 -5.14285603e-05 -4.29437569e-05 -1.82468120e-05
      -3.01218624e-05 -2.28598552e-07 3.74873730e-06 2.58995588e-05
      4.73969294e-06 -8.19485012e-06 -2.40140598e-05 -2.96305770e-05
      -5.33857383e-05 -5.56476080e-05 -2.89479358e-05 -2.47943699e-05
      -5.37738269e-05 -3.48910289e-05 -4.67512873e-05 -2.94756610e-05
      -3.36967569e-05 -5.83257861e-05 -4.16532566e-05 -4.21278855e-05
      -6.21585714e-05 -2.14957581e-05 2.12985087e-05 2.07766625e-05
      5.05718381e-05 2.94697820e-05 2.99774911e-05 2.56036710e-05
      2.74527647e-05 1.26719005e-05 -4.27313125e-06 -1.23770660e-05
      -1.59003212e-05 -2.43814629e-05 -3.97743788e-05 -2.84423077e-05
      -2.91727229e-05 -3.08850249e-05 -2.88035499e-05 -2.73515743e-05
      -7.89175556e-06 1.92166044e-05 3.23948916e-05 2.95234386e-05
      -8.67625422e-05 -6.03548688e-05 -8.44476108e-06 -8.74214311e-06
      -4.38031566e-05 1.25274551e-06 -2.24276791e-05 -5.33325647e-06
      -2.35438511e-05 9.59893782e-07 -6.56055454e-06 1.04790240e-06
      -1.89671155e-05 -1.92170155e-05 -1.74613633e-05 -4.03868689e-05
      -9.83985774e-06 -4.06383188e-05 -5.54223589e-05 -3.31631782e-05
      -5.99678606e-05 -3.92965339e-05 -2.82453238e-05 -5.98514343e-05
      -5.83701039e-05 -3.60230079e-05 -5.61191409e-05 -6.21345171e-05
      -3.73504918e-05 1.42691733e-05 6.51290611e-05 2.57438896e-05
      2.52212139e-05 1.84817090e-05 2.38912544e-05 6.75611909e-06
      -4.95486120e-06 -1.28447437e-05 -2.37072472e-05 -3.60948798e-05
      -3.27165035e-05 -2.93075518e-05 -2.09848295e-05 -2.30124424e-05
      -2.25904587e-05 -2.50602316e-05 -2.00915019e-05 -4.56349062e-06
      2.53529579e-05 2.94832735e-05 -7.20538374e-05 -6.54192045e-05
      3.73350886e-05 3.71967581e-05 -3.06353613e-05 1.76520862e-05
      1.11936952e-05 -6.75820002e-06 -1.97613190e-05 3.47904534e-05
      5.03606861e-06 5.34983665e-05 3.65636988e-05 2.50131120e-06
      -1.20885034e-05 -2.38320390e-05 -1.69329760e-05 -5.98306979e-05
      -5.36462830e-05 -1.90503451e-05 -4.93882799e-05 -5.25137693e-05
      -3.57856516e-05 -4.90294551e-05 -4.78051916e-05 -2.68830281e-05
      -5.44917712e-05 -6.42578671e-05 -5.51142766e-05 -3.31051306e-05
      1.71294723e-05 2.33432384e-05 2.63372640e-05 2.08673537e-05
      2.67961586e-05 1.52735665e-05 -8.45556406e-06 -1.17526952e-05
      -2.44594103e-05 -3.01283671e-05 -2.97991046e-05 -2.66384850e-05
      -2.05986835e-05 -2.66040006e-05 -3.38008649e-05 -2.73481055e-05
      -2.00788836e-05 -1.54655879e-06 2.49336226e-05 3.05955873e-05
      2.48536817e-05 -4.40287367e-05 5.02827752e-05 5.41613153e-05
      -3.18733255e-05 3.52609022e-05 2.04779935e-05 -1.82346612e-05
      -4.09954700e-05 6.26556648e-05 3.34616598e-05 5.78701183e-05
      8.67505150e-05 6.27600966e-05 -5.54230155e-06 3.56216697e-06
      1.06566731e-05 -4.28521817e-05 -3.76768803e-05 6.56816565e-06
      -7.10243185e-05 -5.82942885e-05 -4.68968537e-05 -3.75145428e-05
      -5.87979084e-05 -3.03265206e-05 -3.88488879e-05 -4.95316890e-05
      -6.05645910e-05 -5.15106840e-05 -9.11148345e-06 -2.65145900e-05
      6.94667051e-06 2.19796802e-05 2.23261741e-05 8.58954809e-06
      -8.22556194e-06 -4.94395090e-06 -1.52501625e-05 -1.58029143e-05
      -1.09164757e-05 -1.50208371e-05 -1.48027948e-05 -1.59790980e-05
      -2.14974534e-05 -1.56977530e-05 -1.98254793e-06 5.83169731e-06
      2.94468209e-05 1.32494542e-05 2.72665238e-05 -3.52214374e-05
      4.15754839e-05 8.04576630e-05 -1.62850483e-05 3.66380227e-05
      2.56171297e-05 1.96132896e-05 -3.46446941e-05 7.53925488e-05
      6.23412780e-05 6.89203080e-05 1.17604141e-04 1.18953678e-04
      7.10505774e-05 -2.49807590e-06 1.10999617e-05 -5.87495333e-06
      -2.88202773e-05 5.64761012e-06 -3.81654972e-05 -5.23338349e-05
      -5.16442597e-05 -6.03414810e-05 -4.90114107e-05 -2.13008207e-05
      -8.61489480e-06 -3.57882091e-05 -6.65779226e-05 -6.19735729e-05
      -1.84940291e-05 -5.31270671e-05 -4.02993064e-05 1.50520336e-05
      4.97820038e-05 1.27045951e-05 -1.87039568e-05 -1.36188701e-05
      4.20641953e-07 -4.41746761e-06 -1.16235606e-05 -4.66120099e-07
      9.83832615e-06 8.93419292e-06 1.01012502e-05 -2.02299429e-06
      -2.72889679e-06 7.12004430e-06 3.36134472e-05 8.49464959e-06
      2.15395739e-05 -3.85711937e-05 2.90158514e-05 8.66284681e-05
      4.03191843e-05 5.52710299e-05 3.30404655e-05 3.88421431e-05
      8.84087694e-06 8.74410252e-05 7.72809362e-05 8.36647741e-05
      9.46218206e-05 9.54549832e-05 1.11040783e-04 2.68360873e-05
      2.36596607e-05 3.64158609e-06 1.08171707e-05 4.51375627e-06
      1.32004652e-05 -1.73630342e-05 -1.65241745e-05 -5.40880246e-05
      -3.55308221e-05 -5.04623822e-05 1.23223926e-05 2.69678276e-06
      -4.53907451e-05 -3.85892381e-05 -1.52806697e-05 -2.45554220e-05
      -2.12864361e-05 2.77099980e-06 3.97795775e-05 4.89270060e-05
      6.08016016e-05 3.14312711e-05 5.05866883e-05 3.84871419e-05
      3.28695824e-05 3.53479627e-05 2.76812953e-05 4.47319981e-05
      2.82999335e-05 1.75801742e-05 2.60348770e-07 9.99572603e-06
      4.31327207e-05 6.77427761e-06 7.93326126e-06 -1.22203110e-05
      7.44684121e-06 7.83774813e-05 4.77829744e-05 4.25190919e-05
      4.49772815e-05 3.40361548e-05 1.94661134e-05 8.96451966e-05
      8.62833404e-05 1.20919125e-04 8.51243385e-05 9.31994073e-05
      8.52800076e-05 1.84703149e-05 7.91388811e-06 2.00167542e-05
      2.28721710e-05 4.67825193e-05 5.02126313e-05 -3.56039459e-06
      -7.67240090e-06 -4.27463747e-05 -5.40384171e-05 1.62224369e-05
      1.87386274e-06 -9.24168853e-06 -3.92157344e-05 -5.16821601e-05
      -3.04992009e-05 -5.22641822e-05 -2.83324698e-05 -5.43527676e-06
      5.65140108e-05 9.46442015e-05 1.28002939e-04 7.81228882e-05
      8.69282885e-05 7.89646656e-05 6.90063898e-05 7.95937158e-05
      5.74517726e-05 5.07242221e-05 3.77322831e-05 2.09839855e-05
      -5.38838594e-06 3.80551501e-06 4.02105470e-05 8.15421481e-06
      3.73828661e-05 8.00379985e-06 4.74122362e-06 7.39061798e-05
      5.75251979e-05 1.39228050e-05 4.10753673e-05 4.51963133e-05
      4.12624540e-05 9.66990629e-05 8.23960363e-05 9.29307935e-05
      5.77205647e-05 4.09681161e-05 2.67827327e-05 5.37956930e-06
      -2.05692595e-05 -1.71854344e-06 1.30824537e-05 3.93673363e-05
      7.31552645e-05 1.77323327e-05 -3.12636848e-06 -2.79307369e-05
      -2.24054111e-05 -3.00687771e-06 -3.21558241e-06 7.12976885e-07
      -4.43604840e-05 -4.70594241e-05 -1.86296311e-05 -3.73535840e-05
      -6.10171764e-06 1.89548609e-05 7.07686413e-05 1.06521955e-04
      1.31922992e-04 8.43625385e-05 7.75452572e-05 5.42778398e-05
      3.91311041e-05 4.38967254e-05 3.41335654e-05 2.53905728e-05
      8.08372351e-06 -3.41845453e-06 -2.29157413e-05 -5.07384857e-06
      2.14716601e-05 -1.51720735e-06 1.06855496e-05 2.71314111e-05
      -1.46292541e-05 6.65818152e-05 7.25831051e-05 6.17228434e-05
      4.89763843e-05 4.66768688e-05 4.89855556e-05 9.80032564e-05
      6.40270155e-05 5.08366247e-05 3.60889062e-05 1.85102308e-05
      2.51048896e-05 1.02788154e-05 -5.03528609e-05 -3.96005526e-05
      1.37677807e-05 4.28835119e-05 8.69960641e-05 5.35097533e-05
      2.62465492e-05 -1.41057208e-05 8.29803867e-06 -1.43377774e-05
      -2.00844897e-05 -1.46437942e-05 -4.19906428e-05 -2.18079203e-05
      -3.81895234e-06 -3.87524742e-05 -2.74200975e-05 -1.20394607e-05
      2.50146986e-05 6.02264299e-05 5.97717190e-05 2.80913282e-05
      2.40386908e-05 1.38524829e-05 -4.02525166e-06 -1.73977714e-05
      -2.13994063e-05 -3.48212343e-05 -3.07573464e-05 -5.02090770e-05
      -5.85602429e-05 -3.02246917e-05 -1.51350787e-05 -4.08411615e-05
      1.81808427e-05 -9.63907587e-06 -9.85827569e-07 6.78560609e-05
      6.34214448e-05 4.55255795e-05 4.55002082e-05 5.01642280e-05
      5.43845345e-05 7.06649298e-05 2.73615478e-06 -3.72348914e-05
      -4.31007138e-05 -3.74625124e-05 -1.75786736e-05 -2.09591690e-05
      -2.00123395e-05 1.09378516e-05 6.19575876e-05 7.32049739e-05
      9.11879688e-05 7.53103159e-05 7.26961152e-05 5.02996336e-05
      -1.29762816e-06 -1.59984356e-05 -1.92304433e-05 -1.94683321e-06
      -4.95894601e-05 -2.72170055e-05 -1.03796886e-07 -3.07785813e-05
      -2.51096299e-05 -1.62270044e-05 -4.22294033e-06 1.02005506e-05
      5.06261749e-05 2.68932890e-05 1.89449256e-05 -3.02463377e-06
      -1.11351264e-05 1.83232623e-05 3.46179731e-05 -3.86154679e-05
      -4.74818771e-05 -6.84155166e-05 -7.84842196e-05 -5.88743678e-05
      -4.19676217e-05 -7.44284553e-05 1.90725859e-05 -2.89588133e-05
      5.86847727e-06 4.77037975e-05 3.68519650e-05 1.71563897e-05
      4.32744237e-05 3.71949172e-05 2.05960241e-05 4.28080966e-05
      -1.46408229e-05 -4.91967076e-05 2.05142514e-05 4.68273247e-05
      7.61872070e-05 6.76624259e-05 5.14011372e-05 5.94333833e-05
      1.10286528e-04 1.02910832e-04 8.30653735e-05 7.46013829e-05
      6.54585601e-05 5.89605152e-05 3.68445799e-05 -4.08965097e-05
      -1.25273039e-06 2.54000788e-05 -6.72636088e-05 -3.32324671e-05
      -4.24111704e-06 -9.81532139e-06 3.15397228e-05 2.79313062e-05
      2.27247365e-05 2.60099478e-05 4.13284288e-05 3.95230054e-05
      8.04567971e-05 5.93497825e-05 3.80631391e-05 8.75308433e-06
      -7.28550594e-06 -6.17309997e-05 -8.96534693e-05 -1.07927110e-04
      -8.12914150e-05 -5.32172890e-05 -3.85650455e-05 -7.18116935e-05
      1.89306484e-05 -3.04574951e-05 -8.00476664e-06 4.78584843e-05
      2.86955237e-05 1.52907778e-05 3.33629105e-05 3.98581433e-05
      -1.80421102e-05 2.98767627e-05 -1.26325103e-05 -1.37960214e-05
      6.09339731e-05 8.97218924e-05 1.07948676e-04 8.74314574e-05
      5.18044835e-05 4.63104443e-05 7.40955948e-05 6.52986491e-05
      7.91030398e-05 7.15755086e-05 8.51182631e-05 8.64145622e-05
      6.51433875e-05 2.78189236e-05 4.53855391e-05 7.54845241e-05
      -1.06128782e-05 2.77638483e-05 3.63396684e-05 3.60018857e-05
      3.27991656e-05 3.62341598e-05 5.94768499e-05 7.00043311e-05
      9.24019623e-05 8.38128253e-05 5.49363249e-05 1.88834983e-05
      2.48480228e-05 -1.34259271e-05 -3.75461641e-05 -8.13529696e-05
      -9.43005143e-05 -1.06351348e-04 -9.54086063e-05 -6.99863522e-05
      -4.81087336e-05 -8.54395548e-05 -2.87196002e-07 -8.54311111e-06
      6.82638938e-06 1.24891958e-05 8.70126405e-06 -9.60023863e-06
      6.74672128e-06 1.36836461e-05 -4.33304049e-05 2.20166348e-05
      4.47056118e-06 8.30041131e-07 3.64307671e-05 6.10135394e-05
      7.63077187e-05 8.68267816e-05 9.05281340e-05 6.67849963e-05
      5.22761766e-05 5.78151084e-05 4.54748806e-05 4.74604385e-05
      5.79193438e-05 5.61516026e-05 3.34589822e-05 -2.26141019e-05
      -2.64491318e-05 3.51148628e-05 8.78534047e-06 6.66232372e-05
      4.79548580e-05 6.62778912e-05 8.71271004e-06 1.66214613e-05
      6.45501277e-05 4.81942734e-05 4.64067598e-05 2.47796670e-05
      1.88743616e-05 2.28425579e-05 1.15326930e-05 -5.66411336e-06
      -1.87055466e-05 -5.66142699e-05 -8.50616634e-05 -1.00862620e-04
      -7.51344633e-05 -5.08422199e-05 -7.37297960e-05 -9.20096427e-05
      -4.07230182e-05 -2.04926309e-05 -1.09167968e-05 -1.72895670e-05
      -1.38249034e-05 -2.27982600e-05 -2.84687521e-05 -6.24307586e-06
      -7.62531345e-05 3.21060247e-06 -2.14498432e-05 2.10428079e-05
      1.74941397e-05 6.00422500e-05 7.79897528e-05 8.36993568e-05
      9.80797413e-05 8.72863893e-05 6.15533500e-05 7.50814725e-05
      4.90135681e-05 2.97537754e-05 5.65686387e-05 6.35746983e-05
      4.76415371e-05 6.23628557e-06 -3.77895194e-05 1.41242226e-05
      1.25761778e-06 3.85757521e-05 3.51728340e-05 9.11208554e-05
      9.71432601e-05 8.92234239e-05 1.18188465e-04 1.24593877e-04
      6.46512635e-05 9.46962427e-06 -9.01201929e-06 2.27388173e-05
      3.01980854e-05 -4.56482303e-06 -4.58679024e-05 -5.44383802e-05
      -7.44346980e-05 -1.00345736e-04 -7.30488464e-05 -4.95395616e-05
      -7.99182963e-05 -1.15149189e-04 -5.32202539e-05 -3.55256707e-05
      -1.66926966e-05 -2.18738605e-05 -1.51630511e-05 -3.15365869e-05
      -5.93743644e-05 -1.21372404e-05 -5.42850357e-05 -2.92618006e-06
      -2.42806273e-05 -1.47852797e-05 -1.01044470e-05 2.18416553e-05
      4.20217366e-05 5.36489279e-05 5.18134802e-05 6.05426103e-05
      6.14814708e-05 5.90163290e-05 4.79626251e-05 3.08121998e-05
      5.84219561e-05 5.64641778e-05 4.24838545e-05 1.08893355e-05
      -2.07005155e-06 -3.10837568e-05 -2.94482088e-05 -1.70536532e-05
      1.40559541e-05 4.02323494e-05 5.03087103e-05 7.64201177e-05
      8.37406842e-05 8.47418341e-05 3.28387287e-05 1.15353587e-05
      -7.03522819e-05 -5.08580415e-05 -3.18069178e-05 -4.91111605e-05
      -7.95494489e-05 -7.28761224e-05 -8.05387099e-05 -8.71843295e-05
      -9.31010873e-05 -6.38189958e-05 -9.05009729e-05 -1.29908527e-04
      -6.14910605e-05 -5.46116717e-05 -3.88859735e-05 -4.64772384e-05
      -4.57026545e-05 -5.75715057e-05 -4.99808448e-05 -2.02131645e-08
      -1.58385628e-05 -2.17823799e-05 1.04794972e-05 8.68953794e-06
      -1.25750728e-06 1.64862104e-05 3.06252514e-05 3.72315371e-05
      4.30556720e-05 3.76106254e-05 8.39950280e-06 5.16930668e-05
      5.51473167e-05 3.25310939e-05 3.28770511e-05 1.45314971e-05
      2.28943773e-05 -1.11720465e-06 -6.00244402e-06 -4.36003102e-05
      -7.35995709e-05 -9.25879358e-05 -4.10107059e-05 2.65576602e-07
      2.55373052e-05 6.34308817e-05 2.24334417e-05 1.41128985e-05
      2.00823215e-05 4.48581932e-06 -1.76640115e-05 -2.23777752e-05
      -5.10007776e-05 -2.50816229e-05 -3.04841415e-05 -4.42892524e-05
      -2.08858237e-05 -2.63424208e-05 -8.51356308e-05 -6.29252827e-05
      -8.94066252e-05 -1.29325723e-04 -6.24108143e-05 -5.29085155e-05
      -2.61887108e-05 -2.08133843e-05 -3.45982844e-05 -5.75068079e-05
      -3.01402415e-05 -3.34288188e-06 -7.67335678e-06 -2.01128878e-05
      2.03377658e-05 1.34260208e-05 8.92372398e-08 -9.43087525e-06
      1.47457631e-05 -9.22691925e-06 2.50044104e-05 3.08155431e-05
      1.03549719e-05 4.62687349e-05 2.36515516e-05 -6.24064978e-06
      -1.39277508e-05 1.47110131e-05 4.59483599e-05 3.71052520e-05
      4.32652196e-05 -1.37018887e-05 -5.93718978e-05 -7.01313693e-05
      -6.31015209e-05 -6.75436968e-06 2.76664978e-05 6.29349743e-05
      1.37076913e-05 -1.97271152e-06 6.37128096e-06 3.39834842e-05
      -7.89419664e-06 -2.77752752e-05 -5.43252609e-05 -1.11898235e-05
      1.05652880e-05 1.79508461e-05 2.25850472e-05 4.01390789e-05
      -4.42592718e-05 -4.47026614e-05 -7.23954508e-05 -1.30112836e-04
      -4.26565675e-05 -3.60372542e-05 -1.72791249e-06 -2.43075328e-06
      -2.09263162e-05 -5.10377758e-05 -5.29033241e-05 -9.76492993e-06
      -8.19677098e-06 9.00162649e-06 1.70305502e-05 -1.35631410e-06
      -5.93073582e-06 -2.22414360e-06 1.01699998e-05 -9.34914806e-06
      1.10403516e-05 2.01220500e-05 1.17697509e-05 2.28628469e-05
      5.40210704e-06 1.18266360e-06 3.75902237e-05 3.99989549e-05
      3.50033843e-05 2.23169027e-05 3.63211584e-05 8.58040039e-06
      -4.35069114e-06 -6.94067712e-05 -8.32639562e-05 -4.56358466e-05
      -3.54692725e-06 2.18176083e-05 -6.51832761e-06 -2.76378182e-06
      -1.74788220e-05 2.61570640e-05 2.24246687e-05 -4.18175514e-05
      -4.40479198e-05 -1.27604508e-05 2.04350872e-05 1.98541675e-05
      2.56603726e-05 -1.68883489e-05 -8.28543925e-05 -7.26068465e-05
      -3.00922511e-05 -1.33874870e-04 -1.95511657e-05 1.37266334e-05
      4.87534708e-05 5.21349029e-05 9.92281730e-06 -2.04868938e-05
      6.69074871e-06 8.37379673e-07 -1.25129445e-05 2.28652607e-06
      1.70584462e-05 -1.14087043e-05 -3.33212233e-06 2.44235289e-05
      2.09660684e-05 4.42683302e-07 8.89719502e-07 9.27805195e-06
      2.22719809e-05 2.69646462e-05 1.06615462e-05 6.38004440e-06
      3.98376033e-05 3.04553541e-05 2.49842251e-05 4.09223458e-06
      1.31140532e-05 2.36590877e-05 3.56040364e-05 -9.10574745e-05
      -1.14865325e-04 -4.95317181e-05 -4.20033721e-05 -1.49621173e-05
      -3.28621791e-05 -2.89300606e-05 -3.40021215e-05 3.46016022e-05
      4.93432271e-05 -7.41447411e-06 -2.44403091e-05 -1.95369503e-05
      1.96861729e-05 1.79952676e-05 1.92068073e-05 -1.55401776e-05
      5.94684752e-06 6.52405515e-06 2.38880948e-05 -6.49134818e-05
      -9.81424637e-06 7.10931226e-06 3.69746667e-05 6.13980446e-05
      1.03022894e-05 -1.35601858e-05 4.21755576e-05 2.05258839e-05
      2.50248777e-05 2.92268778e-05 3.43247302e-06 -1.86168909e-05
      -7.90299146e-06 1.11421050e-05 -2.63170364e-06 1.51743452e-05
      2.25476779e-05 2.25633430e-05 6.21427971e-05 6.94974078e-05
      4.65575577e-05 4.71897838e-05 7.26974104e-05 3.93073060e-05
      5.05977478e-05 3.55124248e-05 -2.79150777e-06 -6.58095951e-06
      4.14059514e-06 -4.01666402e-05 -1.09848035e-04 -6.42181549e-05
      -2.32893181e-05 -6.17310116e-06 -5.32342201e-05 -2.04895841e-05
      9.34357831e-06 1.73134558e-05 3.88164626e-05 1.18446596e-05
      9.59182103e-07 -1.20074155e-05 1.34980746e-05 1.42739782e-06
      3.00475385e-05 -6.58123372e-06 2.55542436e-05 5.66783128e-05
      -2.05923025e-05 -5.98020924e-05 1.80494735e-05 1.55535654e-05
      5.73569378e-05 7.47755548e-05 2.72818452e-05 -5.24914412e-07
      2.46899672e-05 1.37985144e-05 1.37928673e-05 1.34764732e-05
      -1.17016698e-05 -2.21420960e-05 -2.20083748e-05 -2.20357197e-05
      -1.25870883e-05 -7.72138173e-06 2.14802621e-05 9.24615324e-06
      5.02247312e-05 6.67740751e-05 7.01723693e-05 5.68639734e-05
      7.72871135e-05 6.26396431e-05 5.62433961e-05 5.84695408e-05
      2.01483872e-05 -1.40073034e-05 -4.60416522e-05 -1.02979044e-04
      -1.21522287e-04 -7.20691314e-05 1.22331028e-06 -4.69440147e-06
      -6.62361781e-05 -3.41175801e-05 -1.63093646e-05 -3.20823128e-05
      1.00770467e-06 1.66902410e-05 1.50163105e-05 4.54471547e-06
      -9.05400611e-06 -1.58518815e-05 -9.33185493e-06 -2.73681635e-05
      1.41007813e-05 2.82842520e-05 -4.05347100e-06 -2.89044474e-05
      -2.51828569e-05 1.24648041e-05 5.33482234e-05 8.67984418e-05
      3.79952398e-05 -1.12009757e-05 2.27949786e-05 1.07295737e-05
      9.51704169e-06 1.07926071e-05 -7.56009740e-06 -7.82055304e-06
      -1.70539934e-05 -3.53880000e-06 -6.31365310e-07 1.74580964e-05
      3.19263017e-05 1.63513414e-05 3.95218267e-05 3.71479400e-05
      3.27273301e-05 4.27608211e-05 7.41882395e-05 5.48630705e-05
      1.38798941e-05 2.03599848e-05 9.52164646e-06 -2.22539657e-05
      -3.87288310e-05 -8.97559730e-05 -9.36462820e-05 -6.63782121e-05
      2.58511463e-05 1.31231843e-06 -2.43373779e-05 -3.87961591e-05
      -3.12296761e-05 -2.80358272e-05 -2.70294076e-05 -2.60880624e-05
      -9.23606422e-06 -1.30153794e-05 -2.88678002e-05 -3.68698893e-05
      -4.63285469e-05 -4.64921795e-05 1.32138985e-05 2.42961905e-05
      -1.63720119e-06 -2.51677884e-05 -4.06699910e-05 4.70105306e-06
      5.96234095e-05 8.07714605e-05 2.57757383e-05 -2.53343678e-05
      2.36767482e-06 -3.91608091e-06 -7.40849464e-06 -4.06190975e-06
      -6.83500621e-05 -8.00741764e-05 -8.34960592e-05 -6.10788702e-05
      -8.77541970e-05 -6.81079327e-05 -6.32439624e-05 -6.96564530e-05
      -5.76054845e-05 -6.15076788e-05 -5.51481280e-05 -3.30528019e-06
      4.78598849e-05 4.48332503e-05 7.31373302e-06 -3.32817835e-05
      -1.82200783e-05 -5.33467937e-05 -2.88544852e-05 -5.53747523e-05
      -4.78685870e-05 -4.61172858e-05 4.35341144e-06 8.79858544e-06
      1.19488768e-05 -8.73585759e-06 1.66957115e-08 -5.88457124e-06
      -4.94916640e-05 -7.87416720e-05 -4.74413391e-05 -2.87911225e-05
      -4.69345032e-05 -5.47734126e-05 -8.59199426e-05 -3.01968430e-05
      1.80422376e-05 1.07997512e-05 -2.38157145e-06 -2.84820235e-05
      -7.10097374e-05 -4.87308098e-05 2.79354372e-05 7.46184960e-05
      6.68140183e-06 -3.05867798e-05 -1.25608158e-05 -1.02544609e-05
      -1.62103843e-05 -4.63946744e-05 -5.94049488e-05 -7.16961586e-05
      -6.51129740e-05 -5.55579754e-05 -4.53116882e-05 -4.79999871e-05
      -5.42146372e-05 -6.94835180e-05 -6.45433538e-05 -7.53535642e-05
      -8.35525498e-05 -5.56425766e-05 2.90119679e-05 5.64222864e-05
      -2.50468856e-05 -3.72884206e-05 -4.46761260e-05 -6.61062950e-05
      -2.08985675e-05 -3.75644704e-05 -5.22918199e-05 -4.50244770e-05
      -1.33831918e-05 -1.31096576e-05 -2.85608485e-06 -1.58898802e-05
      1.28303172e-05 2.18673540e-06 -2.39922319e-05 -9.95096707e-06
      -4.69675288e-05 -8.29201326e-06 -1.51780196e-05 -2.97415718e-05
      -5.87932882e-05 -2.48599008e-05 -3.67261714e-06 -1.44726446e-05
      9.32470448e-06 -1.48871604e-05 -9.32986877e-05 -5.96511200e-05
      1.08882077e-05 5.21225957e-05 -3.89876141e-06 -4.43999561e-05
      -4.59882394e-05 -2.26589746e-05 -5.72025820e-05 -4.33725145e-05
      -1.51107440e-06 -5.78058498e-05 -4.74544140e-05 -4.57595052e-05
      -4.82840005e-05 -1.00825291e-05 -5.82209941e-05 -7.30682150e-05
      -7.17082003e-05 -8.57561172e-05 -7.44088320e-05 -4.22070516e-05
      -1.30673952e-05 4.81242205e-05 -4.23162101e-06 -2.53501130e-05
      -8.54585687e-06 -1.86233974e-05 -6.23431333e-06 -7.17991043e-06
      -1.55921152e-05 -4.53425382e-05 -1.76595222e-05 -1.31512470e-05
      8.63382411e-06 -1.80539682e-05 9.96959557e-07 -5.63454523e-06
      -1.30799090e-05 1.27583198e-05 -3.30914809e-05 -2.86180311e-05
      -2.13500589e-05 -6.47146589e-05 -6.49393260e-05 -3.90149944e-05
      -2.72082434e-05 -6.62124148e-05 -5.41734335e-05 -6.91557652e-05
      -1.16450406e-04 -8.28650227e-05 -1.77168931e-05 2.41282778e-05
      7.41610222e-07 -5.59664695e-05 -7.23388002e-05 -2.56558542e-05
      -5.42103153e-05 -3.78684344e-05 5.32613421e-06 -2.46261188e-05
      -5.51045450e-05 -6.09252420e-05 -3.86492284e-05 -2.34652216e-05
      -5.01506402e-05 -5.46351548e-05 -4.85692326e-05 -5.25584001e-05
      -3.33592507e-05 -1.38701289e-05 -1.13174565e-05 5.89425144e-05
      3.97983858e-05 4.10881330e-05 1.66421978e-05 8.94203731e-06
      -1.83417581e-06 2.99585863e-05 2.74738795e-05 -1.38878322e-05
      2.62019103e-06 1.51466759e-06 1.79247618e-05 -4.99590305e-06
      1.40662169e-05 -2.24101223e-06 3.93278242e-06 2.06294953e-05
      -8.17463933e-06 -1.25528413e-05 -6.31984449e-07 -4.37721428e-05
      -4.61900054e-05 -2.61336245e-05 -8.34852981e-05 -1.07003318e-04
      -1.08807290e-04 -1.19290984e-04 -1.71047825e-04 -1.26161482e-04
      -5.20783142e-05 -1.85319568e-05 -5.64004176e-06 -3.51863855e-05
      -4.99027519e-05 -1.54249192e-05 -5.52535494e-05 -6.90663046e-06
      2.18627683e-05 5.59568662e-07 -2.97619117e-05 -1.69808550e-06
      -5.42361704e-06 6.31151806e-06 -3.26934496e-05 -3.88143853e-05
      -1.80394127e-05 4.78959591e-05 6.28963244e-05 6.86632920e-05
      6.71415091e-06 5.94996636e-05 3.21414191e-05 4.69203951e-05
      7.19158106e-06 1.82073909e-05 2.99832100e-05 4.86216632e-05
      3.46084598e-05 4.08647829e-05 4.29656138e-05 3.45797525e-05
      3.30897492e-05 4.37887365e-06 1.26777986e-05 -1.58694984e-05
      3.62443388e-05 2.68568710e-05 -5.09315987e-06 4.12950521e-06
      1.28683832e-05 -1.70004896e-05 -4.13065281e-05 -4.90804268e-05
      -5.03527081e-05 -8.37790649e-05 -7.40549949e-05 -8.00518901e-05
      -1.70518178e-04 -1.21093472e-04 -6.74389739e-05 -2.45202082e-05
      -2.80815348e-05 -2.53746111e-05 -2.41105499e-05 1.39589256e-05
      -2.22403760e-05 6.37513464e-09 -1.15907114e-05 -4.37886883e-05
      -4.93568696e-05 -5.98015104e-05 -6.18757986e-05 -3.62470128e-05
      -1.79848939e-05 -1.65390775e-05 1.08311433e-05 3.65214837e-05
      3.10723372e-05 3.08915628e-06 1.37683827e-07 3.09436109e-05
      2.52866266e-05 6.40719518e-05 5.70482662e-05 4.04581588e-05
      7.25883656e-05 9.03620385e-05 9.01479507e-05 8.90972442e-05
      7.55152214e-05 4.57360984e-05 4.43005374e-05 1.73564858e-05
      1.08787517e-05 1.31293257e-06 3.49451511e-05 -6.60924456e-07
      -1.25669476e-05 -1.13242515e-06 1.52242919e-05 -5.01764589e-05
      -6.33253221e-05 -5.52756610e-05 -5.81428903e-05 -7.78745089e-05
      -6.54974137e-05 -7.22303448e-05 -9.70201436e-05 -7.06715437e-05
      -3.33961398e-05 1.83781722e-05 2.53378748e-05 2.10371909e-05
      4.37667113e-05 4.37044910e-05 4.00277968e-05 5.15493412e-05
      3.81729442e-05 1.40546981e-05 1.39171314e-08 6.56413761e-07
      -4.89416425e-06 1.23438522e-05 4.13437774e-05 3.77618344e-05
      2.05174547e-05 5.62914138e-05 4.49428626e-05 4.83229633e-05
      3.66914392e-05 3.42901767e-05 4.63603392e-05 6.52017698e-05
      7.90062622e-05 6.12082367e-05 9.37922450e-05 9.53861163e-05
      1.12222500e-04 1.10125402e-04 1.16319286e-04 7.29291860e-05
      5.90294185e-05 1.79078288e-05 9.81327685e-06 4.34252215e-05
      2.43909290e-05 -2.82464916e-05 -5.04427699e-05 -2.99296826e-05
      -3.01731288e-05 -8.07307370e-05 -5.37507876e-05 -7.82909592e-06
      -1.37975840e-05 -4.11445435e-05 -4.35826842e-05 -4.05473002e-05
      -8.96617712e-05 -7.79209222e-05 -7.06360152e-05 -2.42153419e-06
      1.55939451e-05 2.49623590e-05 2.45581086e-05 3.17384693e-05
      2.74481536e-05 3.30953117e-05 3.56325254e-05 2.18671375e-05
      3.24979010e-05 2.93783069e-05 3.60855411e-05 3.45834269e-05
      4.95347922e-05 3.79275043e-05 1.68481038e-05 8.28817156e-06
      8.73503836e-07 -5.52859819e-06 -2.59295120e-05 2.60825254e-05
      2.79682536e-05 4.37101262e-05 4.40469266e-05 4.14156202e-05
      6.44132961e-05 7.17888397e-05 9.27584624e-05 7.94132357e-05
      1.15668328e-04 7.59248142e-05 7.15699935e-05 1.56932019e-05
      -1.62026136e-05 -2.36153101e-05 -2.46246836e-05 -3.62906867e-05
      -4.53136854e-05 -1.59221145e-05 -6.51251639e-06 -3.86009888e-05
      -2.80876957e-05 -2.42703245e-05 -3.59319565e-05 -5.23319541e-05
      -7.66383237e-05 -6.14576420e-05 -1.03012171e-04 -7.79098118e-05
      -6.62532402e-05 -1.84757228e-05 1.42433664e-05 1.32208806e-05
      1.71965366e-05 2.67447740e-05 3.50697410e-05 4.03708873e-05
      5.86150600e-05 4.61123382e-05 3.89718953e-05 2.57425145e-05
      3.06498878e-05 3.34532597e-05 4.39337018e-05 3.39787985e-05
      1.28149686e-05 3.18905986e-05 4.09669119e-05 4.07827283e-05
      5.85032903e-05 7.05456550e-05 4.42511227e-05 5.19532987e-05
      4.79711998e-05 6.47860070e-05 6.80550656e-05 4.58784853e-05
      4.73514265e-05 2.35571042e-05 6.07714428e-05 4.83317490e-05
      6.16999096e-05 3.45830667e-05 2.31866943e-05 -1.00386833e-05
      -2.51143301e-05 -2.62033627e-05 -1.93711767e-05 2.20109791e-06
      2.52700975e-05 -8.50583092e-06 -3.98936982e-06 1.63588811e-06
      -2.48232900e-05 -4.44853758e-05 -5.46475130e-05 -2.70512046e-05
      -8.06786702e-05 -6.29652714e-05 -4.96507128e-05 1.75500361e-06
      3.02167264e-05 3.10335199e-05 3.13943165e-05 5.32546183e-05
      5.53526515e-05 7.93306754e-05 8.28675111e-05 8.06252647e-05
      6.94880800e-05 5.18049965e-05 5.38605673e-05 5.35400468e-05
      8.74106408e-05 7.27238803e-05 5.91952448e-05 7.43350611e-05
      6.70301961e-05 6.56625707e-05 6.23884698e-05 4.46612139e-05
      4.25358667e-05 7.36762668e-05 6.64409890e-05 3.69913105e-05
      5.23832496e-05 1.51830282e-05 5.63976482e-06 3.44956834e-06
      2.99121202e-05 4.92760992e-05 6.78998113e-05 4.17023111e-05
      4.95352760e-05 2.23170973e-05 -1.65971687e-05 -1.18399967e-05
      -1.30153546e-06 2.99275216e-05 1.95685316e-05 -2.17005368e-06
      -2.23244911e-06 3.83232589e-07 -3.92307047e-05 -4.74682965e-05
      -4.04558959e-05 -3.15333200e-05 -6.54556279e-05 -4.99309390e-05
      -4.23419588e-05 3.41098962e-06 3.26071058e-05 2.53929593e-05
      2.84947091e-05 4.26381484e-05 4.53645334e-05 6.91476307e-05
      8.02951981e-05 8.24667950e-05 7.09403175e-05 5.90381751e-05
      5.10500686e-05 6.43802559e-05 8.21600624e-05 6.06278263e-05
      4.05829196e-05 6.44282773e-05 5.45889852e-05 6.68353678e-05
      5.45629482e-05 3.00835418e-05 1.97704503e-06 1.23273521e-05
      1.16144893e-05 1.33447584e-05 2.72195048e-05 2.62916856e-05
      1.91387262e-05 -1.98327734e-06 1.77637521e-05 5.05560311e-05
      7.74317377e-05 5.08257908e-05 5.32571248e-05 5.10024511e-05
      4.61051350e-05 2.47579846e-05 -7.62920126e-06 2.88560241e-05
      2.87532803e-05 2.44742591e-06 6.57167357e-06 -3.90771135e-07
      -1.96503570e-05 -1.56892947e-05 -2.68021886e-05 -2.75709808e-05
      -6.83536637e-05 -4.93189727e-05 -3.70129055e-05 3.65055030e-06
      3.12315206e-05 2.22854833e-05 3.15425168e-05 5.00567221e-05
      3.71134702e-05 5.74484002e-05 7.67861711e-05 9.03706168e-05
      8.11290083e-05 7.53730492e-05 4.68904436e-05 6.32903393e-05
      7.58465467e-05 7.23678895e-05 4.69597799e-05 6.43818857e-05
      5.48319149e-05 4.43338758e-05 2.70442488e-05 1.09155126e-05
      -2.29005036e-05 1.40310897e-06 -7.27869792e-06 -9.80674304e-06
      -1.26434170e-05 -1.01905725e-05 -2.23101470e-05 -3.07248338e-05
      8.53381152e-06 4.00707977e-05 5.63000613e-05 2.34587005e-05
      5.95050842e-05 6.51841474e-05 4.86764184e-05 2.57705233e-05
      -1.73092540e-05 -6.86301246e-06 1.26662417e-05 1.23445161e-05
      -2.20402526e-05 -4.87516263e-05 -5.89937299e-05 -3.53387331e-05
      -4.05201936e-05 -4.43108947e-05 -6.73585891e-05 -4.55400477e-05
      -2.24801042e-05 1.46489606e-06 2.72272282e-05 2.42309743e-05
      2.89438831e-05 5.08623634e-05 2.90479747e-05 5.07680670e-05
      5.16503460e-05 6.32574811e-05 7.48387974e-05 6.07168877e-05
      2.86684935e-05 3.82291801e-05 6.08703231e-05 3.45908629e-05
      1.39599888e-05 2.29914258e-05 1.63272452e-05 2.33634455e-06
      6.12393160e-06 1.69201830e-05 -7.36575976e-06 2.30651276e-05
      -1.15309513e-05 -1.17629106e-05 5.57995327e-06 7.73783029e-07
      -9.03612636e-06 -2.44699640e-05 4.77399590e-06 5.36007828e-05
      4.19037060e-05 6.37226640e-06 4.16607982e-05 3.49822367e-05
      1.88090708e-05 -7.49120954e-06 -3.56737219e-05 -1.00432007e-05
      -1.74769084e-05 -3.54985059e-05 -5.25653231e-05 -7.97515531e-05
      -6.67762797e-05 -2.81302400e-05 -2.95490299e-05 -3.04827972e-05
      -6.70026711e-05 -5.49766482e-05 -2.78663247e-05 -2.15481141e-05
      3.85585599e-06 2.35236603e-05 3.12657503e-05 4.33201094e-05
      3.86645333e-05 3.49108159e-05 4.14894494e-05 6.70920272e-05
      7.15876376e-05 3.78136574e-05 3.01500404e-05 4.12527079e-05
      3.99443416e-05 3.91098620e-05 -3.88108447e-06 -1.30953058e-05
      -1.96164783e-05 -1.54651480e-05 1.65095771e-05 2.34738873e-05
      1.09328284e-05 2.84202488e-05 3.03560864e-05 7.47437252e-06
      4.42014743e-06 -4.03418198e-06 -1.06888012e-06 -1.55630096e-05
      1.39756130e-05 2.23366460e-05 -4.50741891e-06 -2.14158317e-05
      2.00994346e-05 4.11550463e-05 5.71000164e-05 5.21239308e-05
      1.78230785e-05 2.03640902e-05 -1.89453276e-05 -4.22135417e-05
      -3.77663673e-05 -6.32704250e-05 -3.59372680e-05 -2.15907166e-05
      -3.27831658e-05 -5.63484100e-05 -9.46734290e-05 -7.82168281e-05
      -4.05761857e-05 -2.90042899e-05 -1.49041753e-05 1.64931917e-05
      2.96937651e-05 4.53436624e-05 3.36136509e-05 4.70997365e-05
      5.59164728e-05 4.25491198e-05 6.39638238e-05 4.28439416e-05
      3.59102196e-05 6.39093851e-05 5.41629233e-05 1.91653053e-05
      1.91258709e-06 -1.72786367e-05 -1.08214872e-05 5.07302002e-06
      3.83580955e-05 3.78529621e-05 3.86741049e-05 6.14213350e-05
      6.47986089e-05 2.57035044e-05 1.05031449e-05 2.24270734e-05
      8.45498107e-06 1.38605110e-05 2.29446832e-05 2.91537162e-06
      -1.51315107e-05 -1.83604498e-05 2.12362684e-05 2.51032998e-05
      3.50731425e-05 3.12855700e-05 1.62600063e-05 2.19201070e-06
      -2.27306209e-05 -1.36007829e-05 -3.41969462e-05 -6.06565118e-05
      -3.92088004e-05 -3.15761499e-05 -1.82785334e-05 -2.94247220e-05
      -8.24096205e-05 -5.03963238e-05 -3.55435368e-05 -3.43487627e-05
      -2.05346878e-05 2.13489579e-06 2.03562686e-05 5.50240802e-05
      5.39532011e-05 2.54840088e-05 2.69396969e-05 2.88229839e-05
      3.57091085e-05 2.86176728e-05 7.07207582e-05 7.15443894e-05
      4.72236497e-05 3.67041066e-05 1.54506415e-05 3.69214217e-06
      -1.23863920e-05 -5.12596989e-06 1.16740175e-05 3.20154504e-05
      2.45052925e-05 3.04353307e-05 3.55534576e-05 2.48524721e-05
      1.33426465e-05 3.48415051e-05 2.77914332e-05 2.05227116e-05
      3.11378717e-05 1.30100489e-07 -5.58870852e-06 -1.21685307e-05
      9.44139344e-07 -1.56206770e-05 -1.60124073e-05 -2.20638572e-06
      -2.17116249e-05 -4.15083268e-05 -1.23131731e-05 9.47293393e-06
      -2.85832466e-05 -6.18365157e-05 -4.86519966e-05 -2.37582917e-05
      -2.55787672e-05 -3.23159693e-05 -4.19332573e-05 -3.19244136e-05
      -1.90529699e-05 -3.26777008e-05 -1.40147040e-05 1.39434661e-07
      3.66331769e-05 2.49488148e-05 9.90924218e-06 2.54019815e-05
      2.31035665e-05 3.40599436e-05 3.71138376e-05 7.49267929e-05
      6.68215580e-05 6.53464813e-05 5.06572178e-05 4.44672551e-05
      2.49151144e-05 1.48722138e-05 7.99916779e-06 1.80748521e-05
      2.13004714e-05 4.07815860e-05 3.12679222e-05 4.81737297e-05
      4.23734054e-05 4.06804247e-05 2.12545965e-05 3.82237158e-05
      3.39370818e-05 1.71115662e-05 9.15708824e-06 3.31100659e-06
      -6.56927739e-07 -3.15996840e-05 -1.37032457e-05 -2.15579221e-05
      -3.67793382e-06 -1.27943440e-05 -2.81900793e-05 -5.15275424e-05
      -2.80772474e-05 -3.36940466e-05 -6.41651714e-05 -6.63621977e-05
      -5.47968302e-05 -3.97401418e-05 -3.24934626e-05 -4.65706216e-05
      -4.03441882e-05 -2.71438839e-05 -1.47099754e-05 -2.61019777e-05
      -1.25348224e-05 5.61645948e-06 7.23491530e-06 -4.99617681e-06
      6.97723499e-06 2.25759504e-05 2.09817954e-05 2.41180751e-05
      5.65869232e-05 5.29715762e-05 4.00766949e-05 5.55759580e-05
      6.04606721e-05 4.62777934e-05 3.89747765e-05 2.86328632e-05
      2.38846442e-05 1.17950840e-05 1.01063360e-05 2.80957902e-05
      3.64306434e-05 5.11612307e-05 5.03017218e-05 5.53830068e-05
      5.14085950e-05 3.24529101e-05 1.46985349e-05 6.83680639e-07
      1.96321423e-07 -2.27623059e-06 -2.06501900e-05 -3.96799151e-05
      -2.18089353e-05 -1.67682683e-05 -1.09542252e-05 -3.37793062e-05
      -4.54708643e-05 -5.44661307e-05 -5.75939885e-05 -6.95926792e-05
      -7.46016158e-05 -5.54754770e-05 -5.18055895e-05 -6.54985997e-05
      -6.64718827e-05 -6.80339726e-05 -3.21202388e-05 -2.82742858e-05
      -1.34796410e-05 -1.02627082e-05 -5.24243296e-06 -2.07289759e-05
      -6.67713175e-06 -2.53669282e-06 5.50750701e-06 1.10878527e-05
      4.15404838e-06 3.26039626e-05 3.36744924e-05 2.29185462e-05
      3.10948162e-05 4.75553534e-05 5.62381065e-05 5.57960993e-05
      4.51320120e-05 3.25674846e-05 1.84899036e-05 1.83851662e-05
      3.97585136e-05 3.85449712e-05 4.95586501e-05 5.59775617e-05
      5.33675593e-05 5.80872656e-05 5.31922306e-05 4.18972450e-05
      1.35671262e-05 2.50866515e-06 6.27155669e-06 -2.06171844e-05
      -5.65782793e-05 -3.89449488e-05 -2.08630336e-05 -1.22483461e-05
      -2.62876001e-05 -5.14241256e-05 -6.09649433e-05 -7.34319037e-05
      -9.86966843e-05 -8.54604441e-05 -7.32886692e-05 -5.51997582e-05
      -6.54516480e-05 -6.58430581e-05 -6.09317394e-05 -7.29173335e-05
      -4.86028766e-05 -3.46782217e-05 -7.39542145e-07 -1.49586676e-05
      -2.65002654e-05 -9.46499949e-06 -3.92095762e-06 -1.59069368e-05
      -1.94358436e-05 -1.22551482e-05 2.10355265e-05 2.76422525e-05
      3.31156889e-06 2.94219745e-07 -1.80075131e-06 3.12375269e-05
      4.87872421e-05 5.45713701e-05 3.81218088e-05 4.73365944e-05
      4.94253472e-05 4.80185918e-05 3.29921713e-05 5.28609889e-05
      5.05843127e-05 6.00899402e-05 6.92471294e-05 6.70715090e-05
      5.24771058e-05 4.55672525e-05 1.95770281e-05 1.23621176e-05
      -7.62423315e-06 -4.91327737e-05 -6.43585299e-05 -5.02924449e-05
      -5.09295714e-05 -5.30626567e-05 -5.74790538e-05 -6.47255583e-05
      -7.09715314e-05 -9.99166587e-05 -1.39923621e-04 -1.51456930e-04
      -1.04179577e-04 -6.56240009e-05 -5.09158635e-05 -4.04645143e-05
      -6.72204042e-05 -6.40471771e-05 -2.73605729e-05 -5.99140731e-06
      -1.84216958e-06 -1.32624937e-05 6.92272761e-06 9.04357148e-06
      1.91146205e-06 -1.12428725e-05 -1.30485614e-05 1.51722643e-05
      3.63862746e-05 2.38989123e-05 2.41183207e-05 2.41083490e-05
      1.12707467e-05 1.85654117e-05 2.50098328e-05 3.73240728e-05
      5.42808266e-05 5.53059144e-05 5.51901758e-05 5.47707277e-05
      4.17343363e-05 3.80684251e-05 5.06698234e-05 4.62276621e-05
      5.10250466e-05 6.50159272e-05 6.16946272e-05 3.07537302e-05
      6.68730854e-06 -4.91601804e-06 -3.35663754e-05 -6.31709336e-05
      -6.13934171e-05 -6.09468188e-05 -8.96961574e-05 -9.12825562e-05
      -8.52712983e-05 -1.01393562e-04 -1.23807418e-04 -1.28190251e-04
      -1.41050536e-04 -1.37688156e-04 -1.21032921e-04 -8.75245096e-05
      -7.57200614e-05 -7.03303158e-05 -6.45555265e-05 -7.22290133e-05</_></support_vectors>
  <uncompressed_sv_total>29</uncompressed_sv_total>
  <uncompressed_support_vectors>
    <_>
      124. 127. 124. 122. 121. 123. 120. 84. 18. 23. 19. 37. 59. 70. 71.
      74. 83. 81. 82. 79. 84. 79. 80. 78. 80. 70. 53. 40. 37. 42. 48.
      50. 51. 60. 67. 82. 99. 106. 112. 106. 105. 116. 107. 69. 33. 25.
      29. 37. 65. 98. 123. 121. 119. 122. 119. 123. 120. 59. 16. 23. 25.
      55. 64. 76. 80. 79. 82. 80. 85. 86. 88. 83. 83. 85. 88. 83. 72.
      47. 50. 57. 61. 63. 68. 75. 89. 94. 105. 116. 125. 128. 128. 129.
      134. 113. 55. 33. 26. 34. 56. 74. 120. 120. 119. 119. 120. 120.
      120. 50. 14. 20. 48. 70. 70. 75. 77. 81. 82. 84. 88. 89. 87. 88.
      89. 92. 90. 91. 86. 65. 52. 59. 73. 80. 82. 87. 98. 101. 108. 120.
      128. 133. 141. 140. 142. 142. 101. 33. 33. 33. 54. 72. 117. 119.
      116. 119. 118. 120. 111. 37. 22. 23. 58. 73. 73. 75. 77. 85. 87.
      86. 93. 94. 91. 88. 94. 93. 90. 96. 93. 87. 70. 75. 84. 91. 97.
      98. 102. 105. 113. 120. 133. 141. 143. 145. 146. 149. 138. 65. 39.
      40. 59. 80. 114. 116. 117. 120. 116. 118. 102. 30. 21. 37. 64. 69.
      74. 75. 80. 83. 89. 88. 94. 93. 93. 94. 93. 93. 93. 93. 91. 89.
      82. 90. 93. 96. 96. 102. 109. 109. 113. 124. 134. 139. 143. 147.
      152. 152. 146. 93. 54. 49. 58. 78. 114. 118. 116. 117. 115. 116.
      91. 26. 25. 39. 64. 75. 76. 73. 79. 86. 81. 88. 92. 96. 96. 92.
      89. 90. 93. 92. 92. 93. 93. 97. 97. 100. 102. 104. 110. 113. 117.
      123. 128. 134. 140. 142. 143. 151. 147. 118. 59. 46. 58. 67. 114.
      117. 115. 115. 116. 117. 103. 22. 22. 50. 64. 71. 73. 77. 80. 86.
      88. 92. 87. 95. 92. 90. 93. 93. 95. 99. 95. 101. 101. 99. 100.
      104. 106. 104. 108. 109. 114. 121. 126. 133. 138. 142. 144. 151.
      149. 125. 79. 46. 54. 63. 116. 119. 115. 116. 112. 114. 93. 21.
      27. 52. 58. 72. 75. 76. 84. 84. 91. 95. 93. 91. 91. 92. 95. 93.
      92. 95. 97. 101. 100. 103. 103. 105. 102. 107. 107. 106. 113. 118.
      125. 134. 135. 139. 141. 148. 148. 129. 95. 55. 54. 63. 114. 114.
      112. 117. 116. 114. 99. 24. 32. 58. 63. 71. 77. 78. 84. 84. 86.
      86. 93. 89. 92. 94. 93. 91. 98. 96. 98. 98. 97. 102. 101. 99. 103.
      107. 112. 115. 123. 127. 131. 136. 136. 138. 143. 144. 146. 134.
      105. 60. 51. 58. 116. 115. 116. 119. 116. 118. 100. 27. 37. 63.
      60. 70. 70. 74. 78. 83. 90. 90. 94. 93. 95. 92. 96. 95. 93. 96.
      97. 102. 102. 104. 102. 102. 105. 109. 114. 120. 125. 130. 132.
      136. 137. 140. 140. 141. 144. 131. 103. 66. 48. 61. 116. 113. 118.
      116. 117. 115. 103. 26. 41. 62. 66. 67. 71. 78. 79. 83. 90. 94.
      94. 96. 100. 97. 101. 97. 96. 101. 100. 105. 104. 105. 104. 101.
      106. 109. 111. 119. 121. 124. 129. 137. 137. 138. 140. 140. 145.
      134. 108. 64. 46. 70. 116. 115. 116. 115. 115. 114. 108. 39. 49.
      61. 57. 50. 51. 50. 62. 69. 70. 76. 82. 91. 98. 98. 96. 100. 98.
      101. 104. 107. 102. 102. 105. 107. 99. 103. 101. 99. 99. 106. 105.
      111. 120. 136. 138. 140. 140. 135. 114. 68. 53. 93. 112. 112. 114.
      114. 113. 113. 107. 42. 41. 59. 46. 35. 34. 34. 35. 33. 37. 41.
      49. 68. 82. 96. 94. 95. 95. 99. 102. 104. 101. 100. 99. 94. 91.
      77. 72. 68. 70. 68. 62. 61. 73. 111. 138. 140. 138. 136. 112. 65.
      49. 116. 113. 112. 115. 111. 116. 111. 110. 52. 46. 55. 41. 29.
      30. 27. 25. 24. 24. 24. 36. 43. 58. 76. 89. 99. 100. 102. 103.
      101. 99. 98. 91. 73. 56. 41. 35. 36. 31. 35. 39. 43. 45. 76. 119.
      140. 141. 141. 120. 65. 62. 129. 114. 109. 111. 113. 111. 106.
      107. 57. 53. 49. 36. 48. 54. 70. 66. 59. 46. 36. 43. 47. 54. 62.
      76. 90. 94. 94. 98. 101. 99. 90. 82. 59. 53. 40. 38. 39. 37. 54.
      64. 61. 56. 63. 92. 132. 142. 143. 122. 62. 79. 134. 113. 109.
      112. 109. 110. 106. 108. 64. 53. 54. 51. 65. 69. 73. 75. 72. 64.
      64. 65. 63. 67. 69. 80. 83. 89. 90. 92. 99. 99. 93. 82. 75. 69.
      63. 64. 76. 83. 84. 87. 92. 85. 88. 102. 129. 143. 147. 122. 61.
      95. 134. 108. 106. 109. 106. 99. 76. 76. 60. 59. 57. 59. 65. 70.
      63. 59. 57. 61. 52. 51. 51. 61. 65. 70. 77. 82. 84. 92. 97. 95.
      92. 87. 77. 73. 67. 64. 71. 73. 73. 81. 86. 89. 93. 103. 119. 137.
      141. 117. 64. 109. 134. 110. 110. 111. 108. 87. 62. 61. 44. 61.
      65. 64. 64. 61. 52. 45. 44. 45. 41. 46. 42. 48. 45. 57. 71. 83.
      91. 98. 102. 94. 83. 66. 60. 52. 43. 44. 54. 59. 62. 67. 71. 78.
      94. 107. 122. 134. 143. 111. 60. 119. 138. 107. 110. 107. 107. 76.
      55. 60. 45. 60. 67. 65. 58. 50. 41. 23. 33. 19. 25. 27. 50. 47.
      50. 48. 54. 75. 84. 94. 99. 80. 69. 54. 50. 50. 46. 30. 29. 35.
      49. 59. 64. 69. 85. 101. 122. 132. 142. 104. 72. 113. 120. 104.
      109. 108. 104. 66. 61. 59. 51. 61. 68. 68. 56. 47. 33. 34. 41. 22.
      28. 33. 53. 54. 41. 46. 50. 69. 88. 92. 93. 75. 66. 54. 48. 60.
      58. 28. 34. 31. 46. 48. 51. 66. 80. 95. 117. 134. 144. 107. 68.
      104. 106. 108. 106. 104. 105. 75. 59. 67. 48. 66. 67. 68. 60. 55.
      48. 42. 48. 34. 33. 37. 47. 43. 48. 49. 54. 73. 91. 94. 95. 72.
      63. 54. 48. 52. 51. 39. 26. 38. 60. 66. 70. 76. 87. 103. 123. 137.
      142. 107. 86. 108. 118. 106. 107. 106. 103. 79. 57. 64. 48. 69.
      73. 69. 65. 63. 59. 57. 55. 45. 50. 54. 53. 49. 46. 52. 60. 73.
      94. 103. 103. 84. 68. 59. 56. 54. 51. 60. 58. 60. 69. 84. 97. 104.
      110. 117. 126. 143. 145. 106. 91. 108. 122. 101. 102. 102. 103.
      83. 56. 58. 47. 64. 65. 66. 68. 67. 62. 61. 58. 57. 63. 63. 59.
      60. 56. 57. 61. 79. 96. 104. 108. 99. 85. 74. 62. 61. 68. 69. 75.
      77. 88. 100. 110. 122. 124. 131. 136. 143. 142. 108. 76. 92. 115.
      104. 105. 98. 101. 88. 53. 60. 46. 61. 68. 67. 75. 76. 64. 67. 67.
      69. 70. 72. 74. 67. 66. 62. 64. 79. 91. 107. 111. 106. 100. 93.
      90. 80. 77. 81. 87. 95. 100. 112. 122. 132. 136. 136. 142. 147.
      145. 111. 84. 90. 109. 101. 100. 105. 100. 96. 63. 55. 49. 65. 70.
      75. 74. 73. 74. 72. 76. 82. 79. 79. 74. 71. 66. 61. 65. 83. 93.
      110. 118. 111. 109. 105. 100. 98. 98. 89. 94. 102. 108. 117. 125.
      132. 140. 142. 146. 148. 144. 106. 113. 89. 110. 100. 103. 100.
      99. 94. 69. 54. 40. 62. 66. 73. 74. 74. 75. 73. 78. 81. 76. 74.
      80. 74. 67. 66. 73. 86. 98. 118. 120. 116. 113. 107. 102. 101.
      101. 98. 95. 97. 103. 108. 119. 124. 131. 139. 142. 148. 137. 90.
      110. 95. 116. 100. 99. 98. 96. 91. 75. 61. 34. 52. 69. 75. 79. 77.
      76. 78. 78. 76. 81. 71. 76. 70. 61. 63. 76. 87. 103. 119. 126.
      121. 113. 108. 106. 103. 99. 105. 106. 103. 104. 107. 112. 117.
      124. 130. 140. 145. 130. 83. 100. 105. 120. 96. 92. 95. 90. 85.
      77. 59. 38. 47. 71. 76. 79. 75. 77. 80. 76. 80. 78. 75. 74. 70.
      63. 67. 80. 92. 105. 123. 134. 129. 114. 103. 106. 107. 103. 108.
      112. 112. 112. 109. 111. 113. 122. 127. 137. 142. 119. 81. 111.
      128. 119. 94. 92. 88. 82. 86. 84. 70. 33. 45. 69. 73. 77. 76. 78.
      81. 80. 76. 76. 80. 76. 66. 62. 73. 85. 87. 99. 124. 137. 139.
      128. 104. 92. 101. 104. 107. 113. 118. 120. 116. 116. 117. 119.
      125. 133. 138. 99. 84. 127. 144. 139. 92. 84. 82. 82. 86. 87. 81.
      43. 38. 67. 69. 76. 74. 75. 81. 85. 85. 85. 77. 74. 69. 67. 74.
      79. 88. 97. 115. 133. 139. 140. 127. 94. 94. 103. 108. 111. 117.
      121. 125. 120. 117. 119. 124. 133. 133. 77. 84. 117. 135. 139. 83.
      83. 83. 88. 89. 88. 86. 52. 33. 63. 76. 80. 74. 73. 79. 81. 82.
      86. 82. 81. 67. 67. 79. 89. 93. 100. 103. 120. 123. 125. 126. 107.
      94. 99. 106. 110. 118. 123. 125. 123. 119. 121. 121. 129. 121. 65.
      81. 117. 129. 131. 82. 87. 88. 92. 91. 88. 87. 42. 26. 52. 66. 71.
      71. 75. 81. 88. 85. 80. 80. 76. 54. 47. 58. 75. 83. 89. 93. 92.
      83. 77. 82. 95. 92. 96. 96. 108. 114. 119. 124. 124. 119. 119.
      122. 125. 101. 65. 110. 121. 127. 128. 105. 114. 118. 120. 124.
      126. 126. 67. 21. 38. 61. 70. 72. 73. 78. 78. 78. 73. 64. 60. 48.
      29. 25. 46. 61. 65. 59. 47. 39. 43. 64. 90. 95. 97. 94. 102. 111.
      114. 124. 123. 123. 121. 115. 109. 80. 66. 118. 129. 127. 130.
      138. 139. 139. 134. 134. 134. 134. 81. 17. 31. 50. 64. 67. 78. 78.
      74. 61. 47. 42. 37. 28. 16. 19. 22. 24. 29. 33. 27. 23. 28. 55.
      78. 91. 91. 92. 96. 106. 113. 117. 122. 121. 118. 109. 90. 63. 77.
      124. 123. 129. 127. 120. 129. 136. 136. 137. 134. 134. 102. 25.
      24. 34. 53. 65. 75. 72. 56. 37. 23. 24. 18. 18. 17. 17. 20. 25.
      21. 23. 27. 26. 27. 34. 44. 58. 70. 77. 92. 101. 110. 121. 120.
      116. 104. 87. 74. 55. 95. 125. 122. 126. 127. 132. 122. 124. 134.
      135. 135. 135. 110. 30. 20. 25. 39. 54. 64. 52. 38. 24. 19. 19.
      21. 21. 26. 34. 32. 35. 31. 35. 38. 26. 27. 31. 37. 40. 45. 60.
      79. 90. 103. 112. 112. 104. 81. 65. 57. 59. 105. 122. 126. 129.
      126. 135. 135. 127. 125. 130. 135. 135. 119. 36. 19. 18. 34. 42.
      47. 37. 21. 19. 19. 23. 27. 37. 42. 53. 56. 60. 56. 62. 64. 53.
      49. 35. 31. 30. 32. 40. 55. 85. 100. 103. 97. 82. 60. 54. 53. 74.
      117. 121. 121. 124. 127. 132. 129. 133. 133. 129. 136. 139. 128.
      51. 15. 18. 27. 35. 39. 32. 25. 20. 29. 34. 40. 43. 39. 33. 40.
      43. 45. 48. 51. 54. 54. 48. 38. 29. 23. 31. 47. 77. 97. 97. 83.
      65. 56. 51. 45. 89. 117. 121. 120. 125. 127. 129. 132. 131. 130.
      131. 128. 136. 136. 74. 17. 18. 26. 28. 37. 32. 28. 26. 36. 38.
      25. 33. 29. 34. 28. 30. 35. 34. 35. 35. 39. 38. 47. 38. 28. 27.
      39. 72. 90. 88. 75. 58. 49. 46. 56. 104. 118. 121. 121. 124. 125.
      125. 130. 130. 129. 132. 128. 129. 131. 103. 28. 20. 26. 30. 37.
      32. 28. 27. 44. 52. 50. 49. 46. 48. 49. 54. 47. 46. 48. 55. 52.
      47. 45. 48. 40. 35. 43. 65. 73. 70. 61. 54. 45. 43. 77. 116. 119.
      119. 121. 123. 122. 131. 126. 128. 128. 124. 129. 123. 127. 118.
      38. 17. 21. 31. 39. 33. 22. 35. 56. 58. 66. 62. 57. 55. 55. 57.
      51. 53. 62. 65. 66. 71. 73. 65. 54. 41. 55. 66. 63. 58. 55. 51.
      45. 49. 102. 115. 120. 121. 120. 121. 124. 125. 124. 126. 130.
      126. 128. 124. 116. 113. 41. 19. 24. 34. 36. 26. 25. 39. 55. 60.
      64. 56. 50. 47. 40. 42. 41. 51. 60. 62. 73. 77. 80. 75. 61. 44.
      54. 64. 59. 53. 53. 46. 38. 69. 116. 120. 121. 120. 119. 122. 124.
      126. 126. 128. 128. 125. 129. 127. 113. 82. 50. 23. 13. 17. 27.
      21. 21. 33. 39. 54. 57. 53. 41. 26. 21. 20. 17. 28. 38. 45. 62.
      73. 72. 60. 50. 42. 55. 63. 56. 48. 45. 40. 39. 97. 113. 118. 119.
      118. 120. 121. 121. 123. 125. 127. 129. 126. 109. 100. 89. 74. 59.
      40. 20. 15. 19. 20. 18. 18. 24. 34. 41. 46. 31. 19. 23. 19. 12.
      19. 33. 53. 61. 55. 50. 44. 33. 36. 43. 45. 49. 38. 37. 36. 72.
      115. 117. 119. 120. 120. 120. 121. 121. 115. 108. 112. 109. 100.
      89. 79. 90. 79. 66. 57. 37. 17. 11. 19. 17. 17. 22. 26. 32. 31.
      27. 22. 20. 21. 22. 27. 42. 51. 49. 35. 25. 25. 28. 26. 32. 37.
      33. 32. 29. 57. 107. 117. 118. 121. 119. 119. 121. 120. 122. 89.
      83. 82. 81. 77. 80. 78. 88. 78. 65. 61. 48. 26. 16. 13. 17. 18.
      14. 20. 23. 27. 19. 23. 22. 26. 22. 29. 34. 33. 34. 29. 23. 22.
      24. 20. 23. 26. 26. 28. 52. 95. 114. 114. 117. 118. 115. 117. 120.
      122. 121. 90. 81. 77. 81. 75. 83. 76. 85. 81. 69. 58. 58. 52. 27.
      16. 14. 19. 19. 17. 18. 21. 27. 23. 25. 27. 20. 24. 31. 27. 25.
      26. 25. 19. 21. 20. 25. 25. 25. 44. 98. 113. 117. 115. 115. 119.
      115. 119. 118. 122. 120. 90. 78. 75. 78. 74. 81. 75. 75. 83. 68.
      63. 56. 60. 46. 25. 18. 14. 16. 13. 20. 18. 20. 21. 27. 23. 20.
      26. 29. 25. 24. 25. 26. 17. 17. 19. 20. 25. 33. 86. 137. 158. 151.
      135. 119. 116. 118. 117. 118. 118. 120. 90. 76. 75. 79. 73. 81.
      82. 72. 80. 74. 64. 66. 62. 52. 46. 29. 15. 11. 13. 17. 17. 20.
      22. 21. 27. 20. 24. 18. 19. 18. 16. 17. 17. 20. 21. 27. 35. 83.
      113. 158. 171. 190. 184. 178. 163. 150. 130. 121. 118. 121. 87.
      83. 75. 82. 79. 83. 88. 70. 72. 85. 66. 70. 66. 70. 67. 49. 33.
      19. 15. 18. 17. 17. 18. 18. 21. 20. 20. 25. 22. 20. 21. 17. 19.
      22. 26. 43. 87. 105. 122. 152. 166. 175. 196. 182. 179. 175. 175.
      149. 127. 124.</_>
    <_>
      133. 134. 134. 134. 132. 132. 137. 135. 133. 86. 25. 26. 63. 71.
      84. 92. 93. 95. 94. 92. 98. 99. 94. 92. 91. 88. 55. 46. 46. 46.
      61. 57. 57. 61. 66. 76. 97. 105. 106. 109. 108. 110. 120. 122.
      115. 91. 44. 32. 36. 35. 131. 129. 131. 134. 133. 132. 136. 134.
      132. 72. 24. 48. 78. 81. 84. 91. 89. 96. 96. 99. 100. 100. 102.
      99. 98. 94. 87. 53. 56. 59. 64. 70. 72. 86. 92. 99. 104. 112. 120.
      123. 127. 128. 136. 142. 134. 126. 62. 30. 33. 34. 129. 128. 133.
      130. 130. 129. 133. 133. 127. 52. 25. 64. 84. 85. 89. 97. 98. 94.
      97. 104. 104. 101. 102. 100. 103. 103. 97. 70. 65. 72. 80. 80. 88.
      98. 105. 112. 117. 119. 123. 125. 138. 139. 140. 145. 148. 145.
      103. 39. 35. 37. 128. 129. 130. 128. 129. 131. 133. 130. 124. 42.
      25. 72. 78. 83. 85. 94. 98. 96. 101. 105. 105. 103. 106. 105. 102.
      106. 103. 97. 67. 76. 93. 104. 103. 106. 113. 117. 119. 122. 126.
      132. 136. 141. 145. 147. 153. 154. 129. 64. 35. 46. 125. 127. 127.
      127. 129. 131. 130. 131. 127. 49. 41. 70. 73. 82. 87. 96. 99. 97.
      103. 105. 104. 106. 105. 106. 103. 105. 103. 103. 87. 93. 101.
      108. 109. 107. 116. 116. 120. 125. 126. 134. 141. 145. 148. 154.
      157. 156. 142. 92. 51. 47. 125. 127. 128. 129. 125. 128. 131. 126.
      116. 41. 45. 77. 76. 86. 85. 94. 97. 102. 103. 106. 104. 103. 102.
      106. 103. 106. 101. 105. 101. 107. 114. 111. 113. 113. 120. 119.
      119. 122. 128. 131. 137. 143. 140. 143. 155. 156. 143. 108. 66.
      49. 125. 126. 129. 130. 128. 127. 130. 129. 114. 34. 47. 77. 74.
      84. 89. 95. 100. 100. 104. 104. 104. 100. 105. 109. 112. 109. 107.
      109. 109. 111. 112. 114. 114. 118. 117. 117. 120. 123. 125. 133.
      136. 139. 142. 146. 154. 154. 144. 119. 80. 53. 124. 127. 127.
      129. 129. 130. 131. 130. 121. 41. 59. 78. 79. 89. 92. 95. 101.
      105. 105. 108. 106. 108. 107. 108. 106. 105. 109. 112. 115. 113.
      112. 117. 118. 115. 118. 122. 123. 125. 128. 132. 136. 142. 141.
      143. 153. 154. 145. 124. 92. 63. 125. 127. 128. 128. 129. 132.
      127. 128. 117. 43. 66. 79. 83. 89. 91. 98. 103. 104. 103. 110.
      111. 106. 109. 110. 106. 109. 109. 110. 115. 116. 113. 118. 117.
      114. 113. 124. 123. 124. 120. 133. 135. 139. 142. 147. 150. 152.
      146. 127. 99. 67. 125. 126. 124. 127. 128. 127. 127. 126. 119. 43.
      66. 75. 79. 83. 89. 96. 98. 100. 101. 106. 110. 106. 108. 105.
      103. 106. 110. 110. 112. 110. 112. 109. 116. 119. 119. 122. 124.
      127. 129. 134. 139. 140. 142. 144. 145. 148. 142. 122. 98. 71.
      126. 122. 122. 124. 123. 126. 126. 128. 117. 52. 72. 69. 68. 71.
      86. 89. 95. 99. 105. 108. 112. 107. 109. 104. 111. 109. 107. 112.
      112. 112. 112. 116. 113. 118. 124. 125. 124. 128. 131. 133. 137.
      138. 137. 139. 143. 144. 139. 125. 100. 69. 125. 123. 124. 122.
      126. 124. 125. 123. 120. 68. 70. 58. 45. 44. 69. 80. 87. 91. 99.
      105. 106. 110. 110. 106. 108. 113. 113. 115. 110. 117. 115. 118.
      118. 123. 124. 123. 121. 126. 129. 130. 132. 139. 141. 138. 139.
      142. 141. 129. 101. 71. 122. 120. 125. 126. 124. 124. 124. 123.
      117. 69. 62. 42. 32. 31. 37. 48. 54. 61. 74. 87. 101. 104. 112.
      110. 106. 110. 113. 113. 111. 114. 115. 117. 113. 110. 111. 108.
      109. 106. 101. 96. 104. 118. 143. 141. 142. 139. 140. 136. 99. 69.
      122. 121. 125. 124. 125. 122. 126. 121. 112. 70. 63. 40. 43. 40.
      35. 30. 28. 36. 38. 54. 78. 97. 106. 113. 115. 116. 115. 114. 113.
      110. 112. 105. 100. 91. 84. 82. 77. 67. 67. 61. 63. 72. 120. 148.
      148. 146. 148. 143. 108. 70. 120. 122. 124. 125. 122. 123. 122.
      96. 82. 63. 58. 52. 64. 73. 80. 73. 55. 36. 40. 50. 62. 80. 98.
      108. 113. 113. 111. 110. 115. 109. 101. 80. 62. 48. 44. 45. 40.
      41. 43. 49. 46. 58. 89. 124. 148. 149. 149. 148. 116. 72. 119.
      118. 122. 125. 119. 122. 117. 78. 75. 61. 57. 65. 76. 80. 80. 76.
      76. 67. 63. 65. 63. 72. 89. 101. 105. 104. 103. 105. 109. 102. 87.
      64. 55. 53. 38. 45. 56. 68. 81. 83. 79. 71. 82. 112. 143. 148.
      149. 150. 103. 70. 115. 118. 119. 122. 121. 122. 112. 75. 73. 65.
      72. 81. 80. 72. 63. 42. 38. 40. 42. 52. 59. 70. 81. 92. 100. 100.
      103. 106. 108. 103. 90. 82. 78. 72. 62. 68. 76. 86. 90. 95. 98.
      98. 103. 110. 133. 141. 147. 145. 89. 62. 117. 117. 118. 120. 122.
      119. 109. 71. 68. 66. 73. 76. 71. 54. 38. 37. 33. 20. 21. 25. 49.
      51. 56. 76. 94. 100. 106. 106. 104. 93. 86. 73. 58. 54. 50. 48.
      42. 47. 56. 68. 90. 98. 104. 116. 125. 137. 141. 142. 82. 64. 116.
      119. 122. 117. 122. 118. 111. 75. 74. 62. 74. 77. 59. 41. 40. 58.
      52. 35. 39. 38. 81. 55. 52. 56. 80. 101. 113. 114. 95. 73. 64. 58.
      54. 61. 58. 23. 21. 27. 40. 48. 66. 84. 101. 109. 124. 131. 142.
      141. 81. 72. 116. 114. 119. 113. 115. 116. 109. 77. 67. 66. 74.
      76. 61. 56. 49. 56. 64. 41. 35. 50. 59. 54. 57. 60. 76. 94. 105.
      108. 90. 79. 75. 68. 64. 84. 78. 31. 34. 37. 72. 55. 52. 68. 86.
      106. 121. 130. 141. 139. 78. 80. 118. 115. 117. 114. 115. 113.
      114. 88. 69. 68. 76. 81. 77. 71. 67. 65. 63. 61. 65. 68. 62. 50.
      56. 56. 76. 101. 106. 108. 85. 78. 75. 65. 60. 63. 78. 58. 43. 61.
      83. 83. 83. 75. 93. 108. 121. 135. 142. 136. 82. 95. 112. 113.
      116. 118. 113. 116. 115. 83. 62. 68. 81. 86. 83. 78. 71. 74. 78.
      76. 69. 69. 66. 64. 57. 66. 89. 105. 111. 107. 94. 82. 69. 69. 66.
      72. 69. 72. 72. 76. 83. 98. 105. 108. 106. 119. 131. 142. 146.
      136. 86. 91. 116. 112. 110. 114. 114. 111. 104. 91. 53. 66. 80.
      84. 82. 80. 77. 70. 77. 80. 79. 84. 71. 61. 64. 76. 95. 106. 111.
      111. 104. 96. 78. 70. 75. 77. 81. 89. 95. 96. 103. 109. 119. 118.
      125. 132. 141. 144. 149. 132. 101. 102. 109. 112. 108. 109. 108.
      106. 108. 100. 59. 61. 81. 85. 85. 82. 83. 80. 81. 82. 86. 79. 85.
      76. 66. 74. 95. 107. 113. 111. 111. 100. 101. 94. 88. 86. 95. 98.
      99. 107. 110. 118. 126. 130. 133. 138. 145. 147. 148. 131. 106.
      128. 113. 113. 114. 112. 109. 108. 103. 99. 64. 60. 79. 87. 90.
      88. 84. 86. 88. 87. 86. 86. 89. 78. 75. 83. 98. 106. 118. 117.
      118. 112. 109. 108. 108. 104. 100. 104. 104. 111. 110. 121. 129.
      136. 142. 143. 146. 151. 147. 123. 89. 128. 113. 112. 113. 110.
      106. 102. 99. 97. 66. 54. 81. 87. 86. 83. 90. 87. 85. 83. 90. 89.
      77. 74. 70. 85. 104. 112. 121. 120. 116. 115. 112. 109. 107. 108.
      108. 108. 109. 112. 113. 121. 124. 128. 137. 142. 148. 152. 143.
      106. 87. 111. 110. 105. 107. 105. 99. 96. 94. 101. 76. 50. 81. 84.
      86. 84. 90. 93. 90. 88. 90. 86. 81. 73. 68. 90. 106. 116. 123.
      122. 122. 118. 110. 111. 109. 108. 114. 109. 110. 112. 115. 117.
      123. 123. 131. 137. 145. 150. 139. 94. 93. 116. 106. 107. 103. 96.
      93. 93. 96. 99. 86. 47. 82. 90. 89. 91. 88. 91. 90. 88. 92. 89.
      81. 69. 76. 98. 106. 118. 124. 125. 125. 112. 110. 112. 112. 112.
      115. 116. 117. 118. 114. 116. 117. 119. 127. 133. 142. 147. 133.
      79. 110. 138. 103. 104. 104. 92. 98. 100. 104. 99. 88. 42. 76. 82.
      88. 87. 92. 91. 94. 91. 92. 92. 74. 76. 85. 96. 108. 115. 124.
      131. 129. 111. 101. 109. 114. 114. 115. 114. 118. 125. 120. 123.
      117. 118. 125. 130. 138. 145. 111. 75. 109. 121. 101. 96. 98. 94.
      97. 97. 99. 100. 85. 34. 68. 79. 84. 85. 90. 91. 97. 93. 97. 92.
      75. 86. 87. 97. 100. 116. 124. 137. 134. 125. 109. 97. 107. 109.
      111. 118. 121. 126. 127. 126. 122. 123. 128. 130. 138. 137. 90.
      71. 112. 130. 107. 106. 112. 115. 121. 127. 131. 134. 105. 34. 56.
      81. 79. 82. 87. 93. 93. 95. 96. 88. 71. 80. 91. 98. 103. 113. 125.
      130. 133. 131. 128. 99. 105. 108. 113. 117. 120. 125. 128. 128.
      124. 126. 122. 128. 136. 125. 76. 91. 127. 127. 137. 139. 147.
      150. 150. 152. 147. 146. 119. 31. 46. 76. 73. 84. 88. 92. 93. 93.
      90. 81. 67. 63. 88. 103. 106. 110. 116. 118. 121. 116. 112. 100.
      105. 106. 108. 116. 119. 126. 129. 130. 129. 125. 123. 125. 129.
      105. 62. 110. 137. 137. 134. 130. 136. 139. 147. 150. 153. 150.
      130. 47. 36. 61. 73. 84. 86. 89. 85. 75. 74. 65. 50. 30. 58. 97.
      96. 99. 97. 78. 61. 64. 75. 101. 104. 106. 107. 112. 122. 121.
      127. 130. 129. 126. 122. 121. 116. 84. 65. 123. 138. 138. 157.
      156. 151. 143. 135. 139. 150. 149. 138. 46. 29. 50. 77. 90. 89.
      83. 58. 46. 47. 38. 26. 18. 17. 39. 54. 62. 39. 31. 24. 37. 69.
      93. 100. 108. 100. 110. 115. 121. 127. 130. 132. 124. 122. 110.
      92. 63. 78. 128. 133. 137. 142. 148. 149. 148. 144. 139. 138. 143.
      138. 57. 22. 32. 64. 75. 79. 59. 28. 27. 26. 21. 17. 18. 20. 23.
      25. 30. 25. 24. 20. 24. 43. 62. 73. 81. 96. 106. 111. 117. 121.
      128. 126. 115. 104. 85. 72. 56. 90. 132. 131. 132. 139. 143. 143.
      143. 144. 145. 143. 145. 145. 77. 21. 24. 41. 57. 49. 26. 20. 18.
      25. 25. 22. 23. 34. 39. 39. 35. 32. 31. 31. 29. 29. 38. 45. 57.
      69. 90. 107. 109. 119. 120. 116. 92. 74. 64. 63. 58. 110. 132.
      135. 135. 143. 138. 139. 141. 145. 142. 140. 143. 139. 93. 20. 22.
      35. 35. 31. 28. 21. 26. 31. 46. 52. 60. 65. 78. 72. 71. 70. 64.
      46. 37. 28. 35. 31. 32. 46. 58. 92. 107. 110. 111. 95. 73. 56. 53.
      56. 72. 122. 132. 132. 134. 144. 145. 142. 141. 142. 141. 145.
      141. 144. 114. 31. 19. 29. 45. 37. 20. 31. 39. 46. 46. 39. 45. 54.
      57. 55. 66. 70. 68. 63. 64. 49. 41. 37. 24. 27. 48. 78. 99. 98.
      92. 76. 60. 51. 54. 52. 95. 128. 130. 130. 131. 142. 140. 145.
      142. 139. 143. 138. 139. 141. 123. 51. 22. 27. 33. 37. 35. 28. 44.
      56. 53. 45. 48. 50. 51. 53. 50. 50. 55. 45. 46. 45. 46. 36. 32.
      30. 43. 76. 93. 93. 84. 68. 55. 49. 51. 67. 122. 130. 131. 127.
      134. 139. 136. 139. 138. 141. 139. 141. 140. 143. 125. 49. 25. 29.
      36. 40. 28. 34. 61. 74. 77. 76. 70. 76. 68. 67. 61. 73. 69. 66.
      60. 58. 57. 53. 44. 35. 43. 60. 78. 71. 68. 54. 51. 45. 46. 88.
      127. 129. 131. 131. 133. 136. 138. 140. 142. 141. 142. 142. 137.
      138. 124. 72. 19. 20. 45. 37. 28. 46. 67. 74. 78. 71. 64. 65. 48.
      53. 62. 73. 71. 84. 85. 93. 94. 82. 64. 45. 57. 69. 72. 68. 55.
      56. 53. 49. 56. 118. 128. 128. 129. 130. 135. 137. 134. 138. 134.
      136. 145. 137. 118. 103. 100. 78. 36. 19. 24. 26. 23. 33. 46. 68.
      74. 63. 44. 33. 31. 19. 25. 39. 57. 72. 83. 92. 96. 84. 69. 44.
      67. 75. 59. 49. 57. 52. 42. 51. 97. 126. 130. 131. 129. 130. 131.
      132. 134. 127. 119. 111. 117. 105. 103. 96. 100. 93. 53. 24. 14.
      22. 17. 27. 28. 48. 55. 57. 35. 23. 25. 16. 19. 29. 40. 52. 69.
      81. 73. 68. 52. 42. 57. 69. 55. 48. 50. 38. 37. 62. 118. 126. 126.
      130. 130. 130. 132. 135. 124. 100. 99. 93. 94. 89. 94. 92. 102.
      90. 69. 41. 22. 20. 18. 16. 18. 23. 39. 39. 30. 20. 22. 20. 22.
      21. 47. 60. 50. 51. 42. 34. 31. 29. 43. 47. 45. 43. 34. 36. 39.
      101. 124. 128. 125. 127. 127. 129. 129. 127. 105. 103. 97. 93. 95.
      87. 94. 89. 91. 93. 74. 58. 32. 18. 16. 17. 19. 17. 24. 27. 30.
      19. 23. 28. 24. 33. 37. 46. 38. 27. 24. 22. 25. 21. 30. 36. 30.
      27. 24. 42. 104. 140. 131. 131. 128. 124. 126. 128. 134. 109. 105.
      104. 94. 84. 93. 84. 98. 93. 81. 93. 83. 64. 55. 31. 15. 15. 21.
      17. 14. 18. 27. 24. 26. 28. 20. 27. 25. 35. 30. 24. 21. 20. 20.
      21. 30. 30. 21. 24. 36. 89. 164. 190. 196. 190. 168. 150. 136.
      133. 133. 105. 102. 104. 94. 85. 92. 88. 96. 100. 83. 89. 85. 73.
      62. 54. 21. 19. 19. 21. 22. 25. 23. 24. 22. 26. 25. 31. 25. 30.
      25. 21. 19. 22. 23. 25. 23. 20. 27. 32. 79. 119. 175. 175. 207.
      206. 196. 190. 184. 176. 145. 102. 107. 104. 96. 87. 92. 86. 96.
      102. 86. 86. 89. 74. 74. 70. 51. 29. 16. 14. 18. 20. 21. 20. 25.
      20. 18. 23. 19. 27. 21. 20. 23. 24. 23. 29. 24. 26. 36. 77. 110.
      133. 148. 181. 175. 207. 208. 196. 196. 204. 204. 100. 98. 100.
      94. 81. 87. 91. 90. 97. 94. 75. 84. 81. 72. 74. 66. 45. 17. 16.
      16. 13. 19. 15. 19. 16. 26. 23. 21. 17. 20. 20. 15. 15. 21. 25.
      22. 42. 77. 108. 119. 155. 135. 169. 180. 188. 211. 196. 197. 205.
      205. 95. 99. 101. 97. 80. 91. 90. 81. 97. 94. 79. 77. 91. 73. 72.
      73. 72. 53. 28. 17. 17. 19. 20. 19. 21. 18. 21. 20. 21. 21. 21.
      17. 18. 21. 25. 47. 88. 109. 109. 133. 168. 133. 140. 173. 167.
      196. 201. 199. 202. 195.</_>
    <_>
      121. 124. 119. 100. 30. 17. 15. 20. 19. 33. 50. 57. 68. 76. 76.
      82. 86. 81. 82. 82. 80. 82. 76. 81. 76. 76. 62. 36. 39. 28. 44.
      52. 48. 53. 65. 87. 116. 120. 110. 106. 114. 87. 41. 36. 36. 52.
      121. 140. 140. 142. 121. 117. 117. 91. 23. 16. 20. 17. 19. 49. 64.
      66. 71. 75. 81. 79. 86. 84. 82. 89. 88. 83. 85. 88. 88. 87. 78.
      55. 44. 46. 50. 60. 64. 71. 88. 98. 113. 125. 134. 133. 132. 136.
      73. 39. 33. 45. 110. 139. 137. 139. 120. 120. 119. 96. 23. 14. 21.
      19. 34. 62. 63. 69. 75. 81. 84. 87. 85. 91. 86. 88. 92. 88. 91.
      87. 88. 92. 85. 74. 52. 56. 66. 66. 79. 85. 99. 109. 117. 131.
      142. 147. 146. 150. 122. 45. 38. 51. 113. 137. 142. 141. 118. 119.
      118. 84. 23. 19. 19. 25. 53. 70. 73. 78. 76. 81. 85. 88. 88. 90.
      95. 90. 88. 93. 95. 91. 91. 91. 89. 86. 69. 68. 82. 89. 95. 91.
      100. 108. 123. 134. 145. 149. 149. 151. 148. 86. 47. 63. 106. 138.
      143. 143. 117. 120. 117. 64. 20. 15. 19. 30. 53. 68. 68. 74. 74.
      81. 83. 86. 92. 91. 94. 100. 95. 94. 94. 92. 95. 97. 92. 95. 83.
      77. 92. 96. 99. 100. 106. 113. 127. 133. 140. 149. 154. 156. 157.
      112. 54. 59. 94. 138. 141. 138. 119. 117. 115. 57. 20. 16. 16. 33.
      54. 67. 71. 71. 77. 79. 84. 86. 87. 97. 94. 96. 99. 97. 96. 97.
      99. 96. 100. 99. 94. 95. 99. 99. 104. 108. 111. 114. 121. 131.
      140. 148. 152. 154. 157. 131. 61. 58. 88. 135. 141. 142. 112. 119.
      117. 64. 18. 16. 22. 43. 58. 69. 69. 72. 81. 76. 85. 85. 88. 89.
      94. 98. 98. 91. 95. 101. 96. 95. 101. 98. 99. 96. 102. 98. 105.
      104. 108. 116. 125. 128. 133. 143. 148. 147. 155. 138. 76. 53. 86.
      134. 141. 141. 116. 118. 119. 71. 20. 16. 25. 47. 61. 69. 78. 74.
      83. 84. 80. 92. 91. 89. 92. 92. 97. 94. 99. 95. 95. 98. 98. 98.
      97. 101. 101. 104. 105. 107. 109. 115. 124. 130. 131. 137. 144.
      146. 153. 143. 86. 60. 96. 137. 138. 140. 116. 117. 115. 69. 19.
      20. 26. 47. 61. 65. 80. 77. 78. 84. 83. 87. 91. 92. 95. 94. 97.
      95. 96. 92. 92. 95. 102. 100. 103. 101. 102. 102. 105. 110. 114.
      115. 127. 131. 134. 142. 143. 147. 151. 147. 96. 60. 102. 136.
      136. 143. 115. 116. 116. 79. 24. 24. 33. 51. 59. 71. 74. 79. 80.
      80. 88. 92. 90. 95. 97. 98. 98. 97. 99. 92. 97. 100. 101. 104.
      104. 107. 107. 105. 111. 110. 118. 124. 134. 138. 139. 145. 144.
      147. 150. 144. 101. 60. 111. 137. 140. 139. 113. 114. 114. 91. 21.
      21. 35. 56. 58. 67. 77. 73. 76. 85. 84. 87. 93. 91. 95. 100. 101.
      99. 104. 98. 97. 102. 103. 103. 102. 106. 108. 104. 112. 111. 116.
      121. 130. 134. 142. 145. 143. 148. 146. 146. 102. 67. 118. 137.
      139. 141. 114. 114. 114. 104. 34. 23. 39. 56. 60. 66. 66. 62. 68.
      73. 75. 80. 89. 91. 98. 97. 102. 103. 102. 100. 98. 99. 100. 105.
      105. 105. 106. 107. 108. 109. 109. 112. 118. 120. 128. 137. 141.
      144. 145. 145. 108. 78. 129. 136. 140. 139. 113. 115. 114. 109.
      41. 24. 46. 63. 62. 66. 59. 52. 42. 48. 61. 66. 71. 79. 80. 85.
      92. 95. 101. 102. 99. 98. 103. 104. 105. 102. 105. 102. 99. 98.
      95. 92. 96. 99. 96. 98. 112. 142. 145. 145. 113. 87. 133. 134.
      138. 139. 113. 114. 115. 112. 47. 29. 52. 67. 63. 56. 45. 38. 41.
      39. 39. 42. 42. 38. 45. 48. 65. 82. 97. 95. 100. 98. 104. 107.
      103. 104. 101. 91. 78. 67. 57. 49. 54. 51. 55. 55. 73. 113. 146.
      148. 115. 101. 136. 136. 137. 136. 110. 109. 109. 109. 60. 26. 57.
      67. 62. 50. 37. 29. 32. 31. 30. 31. 28. 27. 28. 36. 45. 60. 71.
      86. 97. 99. 100. 103. 103. 104. 97. 75. 56. 41. 36. 30. 33. 38.
      41. 44. 52. 78. 131. 148. 116. 114. 135. 134. 137. 135. 111. 103.
      103. 109. 72. 28. 55. 63. 52. 46. 45. 53. 53. 63. 66. 62. 57. 44.
      41. 48. 50. 58. 62. 82. 93. 95. 93. 98. 98. 95. 88. 73. 60. 58.
      50. 54. 62. 80. 80. 79. 64. 79. 121. 147. 110. 119. 135. 138. 137.
      140. 103. 79. 74. 78. 73. 32. 58. 67. 56. 48. 63. 72. 73. 73. 67.
      71. 70. 68. 59. 60. 63. 69. 74. 83. 85. 90. 93. 95. 95. 95. 92.
      85. 75. 71. 67. 68. 73. 79. 85. 88. 89. 96. 122. 145. 113. 124.
      156. 146. 138. 137. 83. 66. 66. 67. 50. 30. 57. 62. 58. 56. 70.
      64. 62. 57. 50. 44. 39. 44. 47. 43. 47. 56. 65. 70. 78. 89. 92.
      94. 95. 91. 74. 68. 55. 49. 48. 49. 53. 59. 65. 78. 88. 100. 125.
      143. 110. 121. 135. 136. 134. 137. 78. 63. 60. 65. 55. 30. 61. 66.
      61. 63. 63. 60. 49. 33. 25. 29. 24. 30. 49. 55. 48. 51. 49. 53.
      70. 84. 94. 99. 95. 76. 54. 49. 52. 47. 34. 37. 47. 44. 48. 64.
      83. 104. 130. 148. 106. 104. 98. 129. 137. 135. 68. 62. 64. 66.
      56. 35. 61. 66. 67. 70. 62. 47. 39. 29. 47. 27. 33. 27. 50. 70.
      57. 50. 57. 53. 61. 77. 91. 99. 88. 65. 60. 50. 64. 42. 31. 29.
      51. 76. 51. 59. 77. 102. 128. 145. 115. 113. 97. 131. 132. 134.
      74. 62. 66. 69. 53. 41. 63. 71. 68. 69. 62. 54. 47. 45. 46. 35.
      26. 25. 48. 47. 45. 52. 55. 50. 58. 78. 93. 99. 89. 67. 56. 49.
      49. 41. 24. 30. 58. 73. 81. 93. 89. 108. 133. 147. 109. 125. 105.
      134. 134. 136. 85. 60. 68. 65. 50. 37. 63. 69. 73. 71. 67. 63. 61.
      62. 56. 51. 46. 47. 53. 53. 56. 54. 51. 55. 60. 81. 96. 101. 104.
      77. 56. 58. 55. 56. 54. 55. 65. 79. 104. 120. 125. 128. 140. 148.
      108. 115. 120. 133. 133. 136. 89. 63. 67. 64. 49. 34. 62. 69. 73.
      69. 65. 71. 66. 64. 63. 64. 63. 64. 66. 64. 51. 50. 56. 63. 66.
      80. 96. 105. 112. 93. 76. 65. 67. 71. 71. 76. 91. 105. 123. 132.
      136. 140. 147. 150. 107. 103. 127. 136. 136. 136. 94. 68. 68. 59.
      52. 34. 62. 67. 74. 74. 79. 73. 69. 67. 69. 67. 70. 70. 70. 65.
      69. 68. 59. 61. 65. 78. 95. 107. 117. 105. 97. 94. 84. 80. 80. 89.
      99. 115. 132. 142. 146. 145. 149. 150. 100. 109. 129. 135. 134.
      137. 95. 69. 57. 58. 47. 35. 64. 71. 73. 71. 74. 80. 73. 73. 83.
      78. 76. 78. 77. 73. 72. 71. 63. 64. 70. 79. 91. 112. 123. 116.
      110. 102. 98. 95. 97. 97. 103. 117. 135. 143. 148. 150. 151. 149.
      92. 113. 133. 135. 138. 136. 89. 77. 59. 58. 47. 25. 58. 69. 73.
      72. 77. 76. 71. 74. 76. 74. 68. 77. 77. 74. 74. 65. 70. 69. 71.
      84. 96. 114. 130. 126. 120. 108. 101. 107. 112. 119. 116. 114.
      124. 132. 135. 139. 146. 146. 91. 124. 132. 132. 134. 133. 87. 81.
      64. 55. 51. 24. 51. 69. 77. 75. 74. 76. 69. 73. 75. 75. 74. 77.
      82. 84. 81. 74. 66. 69. 68. 82. 97. 120. 134. 134. 118. 108. 111.
      115. 120. 130. 136. 134. 130. 128. 129. 135. 143. 138. 111. 123.
      135. 131. 132. 132. 81. 87. 72. 58. 55. 23. 43. 67. 74. 77. 80.
      73. 73. 70. 72. 79. 83. 87. 86. 77. 63. 58. 63. 62. 75. 84. 99.
      114. 137. 144. 125. 100. 94. 108. 124. 129. 136. 141. 139. 129.
      125. 130. 139. 130. 116. 139. 144. 133. 130. 132. 83. 84. 84. 69.
      59. 28. 32. 65. 70. 73. 77. 78. 67. 74. 78. 80. 83. 84. 78. 65.
      59. 72. 66. 70. 78. 81. 95. 110. 130. 145. 144. 132. 87. 83. 103.
      114. 123. 138. 142. 135. 127. 131. 136. 114. 109. 145. 139. 128.
      131. 134. 83. 87. 89. 78. 65. 32. 27. 52. 65. 73. 75. 78. 73. 79.
      82. 83. 84. 75. 75. 72. 66. 72. 72. 77. 76. 83. 89. 103. 130. 145.
      148. 141. 117. 78. 85. 103. 117. 127. 140. 141. 130. 131. 137.
      106. 109. 133. 130. 132. 130. 132. 87. 87. 85. 87. 83. 45. 24. 42.
      65. 74. 76. 74. 75. 80. 81. 88. 77. 64. 73. 66. 53. 55. 72. 73.
      83. 89. 93. 101. 118. 131. 138. 130. 110. 80. 75. 92. 105. 119.
      133. 141. 130. 128. 133. 89. 110. 127. 129. 131. 128. 131. 100.
      102. 104. 114. 118. 57. 24. 31. 52. 71. 72. 70. 73. 76. 79. 84.
      65. 57. 61. 48. 34. 25. 29. 51. 72. 85. 90. 95. 104. 114. 95. 64.
      62. 77. 79. 83. 99. 112. 124. 135. 129. 127. 123. 74. 118. 126.
      128. 127. 128. 130. 129. 132. 137. 139. 131. 71. 24. 25. 44. 60.
      71. 67. 75. 80. 77. 76. 51. 38. 35. 29. 19. 17. 15. 12. 41. 70.
      79. 81. 76. 47. 25. 30. 41. 54. 68. 76. 95. 107. 119. 132. 126.
      120. 101. 75. 119. 126. 126. 127. 129. 130. 136. 135. 135. 137.
      135. 85. 27. 25. 29. 46. 63. 69. 73. 72. 82. 63. 33. 25. 23. 19.
      18. 17. 18. 17. 16. 26. 42. 36. 20. 18. 21. 23. 33. 39. 46. 69.
      85. 101. 122. 129. 123. 108. 74. 78. 122. 126. 125. 128. 127. 131.
      135. 135. 135. 135. 136. 115. 33. 20. 20. 35. 50. 68. 70. 75. 73.
      50. 26. 20. 18. 27. 39. 46. 45. 38. 36. 43. 33. 37. 36. 33. 33.
      31. 33. 34. 32. 53. 82. 99. 116. 123. 105. 75. 60. 88. 125. 127.
      126. 130. 128. 132. 134. 138. 135. 134. 131. 117. 41. 18. 19. 21.
      32. 54. 66. 71. 63. 29. 17. 18. 26. 47. 51. 45. 59. 49. 56. 53.
      50. 60. 58. 59. 59. 56. 41. 35. 37. 41. 74. 96. 111. 111. 77. 58.
      55. 101. 122. 124. 125. 127. 129. 129. 124. 135. 137. 135. 134.
      117. 41. 17. 16. 17. 26. 37. 50. 55. 41. 24. 25. 26. 43. 46. 39.
      47. 64. 77. 86. 77. 73. 83. 66. 59. 47. 53. 57. 34. 27. 39. 70.
      96. 103. 86. 59. 54. 61. 112. 121. 124. 125. 127. 129. 129. 133.
      133. 137. 139. 135. 117. 51. 18. 23. 20. 28. 36. 37. 45. 36. 22.
      24. 37. 49. 38. 30. 31. 43. 57. 80. 81. 89. 93. 76. 56. 40. 44.
      53. 40. 29. 37. 66. 95. 94. 74. 54. 49. 79. 119. 123. 124. 126.
      128. 128. 130. 129. 128. 131. 136. 133. 114. 60. 16. 20. 23. 26.
      31. 34. 42. 41. 33. 32. 38. 52. 36. 27. 34. 46. 57. 51. 53. 56.
      60. 50. 41. 23. 33. 46. 52. 42. 40. 65. 84. 82. 66. 42. 46. 96.
      120. 121. 123. 124. 126. 125. 126. 127. 127. 126. 130. 133. 114.
      61. 21. 19. 20. 23. 30. 33. 42. 41. 37. 26. 37. 54. 44. 37. 38.
      56. 73. 76. 77. 81. 69. 61. 41. 34. 37. 55. 59. 49. 41. 66. 71.
      65. 56. 46. 49. 113. 120. 119. 125. 123. 122. 126. 125. 124. 126.
      127. 120. 131. 115. 62. 28. 19. 15. 21. 23. 31. 38. 43. 28. 27.
      42. 57. 48. 49. 42. 41. 46. 49. 56. 55. 46. 46. 47. 53. 58. 69.
      69. 55. 56. 67. 66. 55. 58. 44. 76. 116. 122. 123. 125. 121. 122.
      124. 124. 130. 129. 132. 126. 115. 89. 64. 43. 19. 16. 18. 20. 30.
      42. 44. 31. 33. 53. 62. 55. 48. 50. 50. 44. 50. 54. 53. 53. 55.
      65. 67. 79. 85. 79. 58. 52. 72. 59. 52. 58. 48. 98. 116. 121. 122.
      121. 123. 122. 127. 125. 128. 127. 122. 117. 102. 67. 65. 51. 26.
      17. 17. 16. 31. 36. 31. 25. 38. 54. 63. 59. 53. 49. 51. 50. 57.
      49. 55. 57. 60. 63. 75. 80. 82. 75. 62. 53. 64. 59. 51. 44. 57.
      112. 116. 117. 122. 122. 120. 121. 125. 122. 125. 116. 96. 85. 93.
      74. 69. 61. 45. 20. 19. 13. 21. 24. 24. 24. 26. 34. 54. 59. 58.
      49. 49. 52. 52. 47. 52. 58. 57. 65. 73. 77. 74. 63. 44. 46. 46.
      44. 35. 42. 87. 116. 119. 121. 123. 120. 122. 121. 125. 127. 95.
      86. 83. 83. 92. 72. 67. 64. 57. 33. 20. 14. 16. 14. 18. 17. 17.
      29. 40. 44. 47. 37. 31. 25. 26. 22. 24. 33. 41. 49. 61. 55. 50.
      38. 32. 31. 36. 35. 32. 59. 107. 113. 116. 118. 120. 118. 120.
      121. 122. 123. 82. 84. 84. 82. 87. 73. 66. 61. 61. 51. 30. 13. 17.
      11. 13. 15. 17. 24. 27. 41. 46. 27. 21. 23. 21. 17. 13. 22. 29.
      48. 51. 39. 29. 28. 25. 30. 32. 28. 49. 101. 114. 114. 115. 119.
      120. 121. 124. 122. 123. 124. 78. 80. 83. 78. 86. 84. 68. 66. 66.
      58. 47. 30. 15. 11. 14. 20. 15. 18. 22. 28. 31. 24. 27. 20. 24.
      19. 26. 25. 32. 42. 41. 31. 26. 22. 22. 22. 29. 38. 93. 114. 114.
      116. 115. 117. 121. 120. 120. 120. 122. 121. 79. 82. 82. 77. 82.
      85. 67. 68. 64. 61. 57. 47. 29. 18. 15. 13. 19. 14. 21. 22. 24.
      25. 25. 24. 26. 24. 24. 29. 36. 32. 31. 26. 24. 19. 23. 24. 38.
      98. 171. 170. 152. 134. 123. 119. 121. 121. 121. 121. 120. 123.
      84. 82. 88. 86. 74. 88. 74. 69. 69. 71. 63. 55. 50. 37. 25. 16.
      16. 18. 20. 15. 30. 26. 29. 29. 25. 28. 24. 29. 28. 28. 23. 23.
      25. 20. 26. 37. 111. 155. 193. 181. 182. 175. 169. 150. 124. 121.
      120. 119. 122. 123. 80. 86. 86. 91. 72. 78. 79. 69. 68. 67. 61.
      59. 55. 52. 42. 30. 17. 17. 17. 18. 20. 25. 25. 27. 24. 28. 25.
      28. 23. 22. 20. 21. 20. 22. 30. 80. 143. 163. 166. 192. 181. 174.
      182. 187. 176. 158. 147. 137. 128. 123.</_>
    <_>
      122. 125. 122. 58. 24. 17. 19. 16. 20. 27. 47. 58. 68. 73. 75. 75.
      79. 83. 78. 76. 78. 68. 71. 69. 63. 53. 29. 28. 34. 37. 40. 40.
      50. 65. 78. 114. 104. 82. 81. 51. 33. 41. 46. 71. 134. 139. 141.
      143. 143. 141. 122. 121. 107. 33. 20. 19. 22. 18. 23. 44. 56. 63.
      74. 73. 75. 80. 80. 83. 83. 81. 84. 86. 81. 78. 75. 72. 60. 32.
      38. 40. 48. 49. 54. 65. 87. 118. 123. 111. 111. 111. 54. 41. 37.
      52. 124. 141. 142. 143. 142. 141. 119. 121. 97. 22. 17. 19. 13.
      17. 38. 58. 65. 67. 75. 83. 81. 90. 87. 86. 84. 88. 89. 91. 87.
      89. 87. 85. 77. 50. 52. 53. 56. 63. 77. 92. 102. 114. 126. 139.
      139. 141. 115. 46. 34. 47. 118. 138. 141. 141. 143. 144. 118. 120.
      98. 28. 12. 15. 17. 17. 53. 67. 73. 70. 79. 83. 82. 87. 87. 89.
      89. 91. 94. 92. 89. 93. 93. 90. 90. 66. 57. 59. 72. 70. 82. 102.
      105. 121. 136. 146. 152. 151. 149. 77. 40. 50. 122. 138. 140. 141.
      142. 143. 120. 118. 95. 24. 20. 17. 20. 31. 63. 72. 74. 74. 76.
      80. 79. 88. 91. 93. 95. 95. 98. 100. 95. 98. 101. 93. 94. 84. 64.
      69. 88. 95. 95. 105. 113. 127. 135. 152. 153. 156. 159. 122. 57.
      62. 114. 141. 141. 143. 145. 143. 118. 117. 74. 23. 13. 15. 23.
      34. 62. 71. 71. 73. 75. 84. 88. 89. 90. 97. 96. 96. 98. 95. 96.
      99. 95. 95. 91. 89. 84. 90. 97. 98. 103. 109. 115. 124. 135. 149.
      152. 156. 159. 146. 73. 59. 101. 140. 143. 141. 142. 143. 119.
      117. 58. 18. 14. 14. 21. 46. 61. 73. 77. 76. 81. 81. 84. 80. 92.
      95. 98. 95. 101. 97. 92. 95. 91. 96. 97. 98. 94. 97. 97. 102. 106.
      110. 115. 123. 131. 141. 148. 153. 156. 152. 84. 53. 97. 136. 139.
      142. 141. 145. 113. 115. 67. 22. 16. 14. 22. 49. 63. 69. 73. 80.
      79. 79. 88. 84. 93. 93. 93. 99. 97. 96. 98. 95. 97. 98. 100. 100.
      96. 100. 102. 103. 105. 112. 117. 125. 131. 139. 145. 148. 152.
      155. 99. 55. 97. 139. 140. 139. 142. 142. 117. 114. 78. 18. 20.
      14. 23. 47. 59. 68. 76. 77. 82. 82. 85. 90. 90. 93. 95. 95. 97.
      97. 96. 96. 100. 96. 99. 99. 101. 104. 104. 104. 106. 110. 117.
      125. 131. 138. 143. 147. 152. 155. 108. 61. 105. 138. 138. 139.
      139. 141. 118. 115. 79. 19. 15. 22. 28. 48. 62. 67. 71. 77. 81.
      82. 81. 87. 88. 94. 97. 99. 99. 96. 97. 95. 101. 98. 101. 104.
      107. 104. 107. 103. 109. 116. 123. 130. 135. 142. 146. 148. 152.
      153. 117. 65. 116. 136. 140. 140. 140. 140. 118. 117. 89. 18. 15.
      26. 35. 56. 62. 72. 80. 83. 79. 88. 89. 93. 93. 96. 99. 97. 102.
      97. 99. 92. 98. 101. 103. 103. 105. 107. 107. 108. 113. 117. 127.
      132. 141. 144. 147. 147. 148. 150. 120. 68. 123. 137. 137. 139.
      140. 142. 120. 117. 105. 29. 20. 24. 44. 55. 62. 66. 73. 78. 84.
      79. 87. 86. 91. 99. 96. 100. 100. 102. 100. 99. 98. 102. 101. 102.
      105. 105. 108. 108. 112. 112. 122. 127. 134. 141. 145. 148. 146.
      148. 122. 77. 130. 135. 139. 139. 142. 141. 113. 113. 109. 39. 24.
      26. 50. 59. 66. 64. 67. 68. 62. 63. 77. 80. 80. 85. 91. 93. 97.
      102. 102. 100. 100. 101. 102. 104. 104. 104. 107. 107. 103. 100.
      109. 111. 108. 123. 125. 135. 146. 146. 127. 87. 132. 134. 139.
      140. 138. 141. 112. 110. 112. 50. 23. 33. 55. 65. 61. 62. 57. 43.
      37. 41. 53. 61. 64. 61. 66. 68. 82. 93. 100. 99. 105. 102. 102.
      102. 106. 104. 103. 97. 90. 80. 70. 73. 78. 78. 73. 88. 131. 147.
      130. 93. 132. 133. 139. 138. 139. 139. 113. 112. 111. 59. 25. 38.
      62. 65. 62. 54. 38. 30. 28. 32. 30. 33. 32. 31. 36. 42. 54. 69.
      85. 95. 102. 103. 104. 108. 105. 103. 98. 81. 58. 47. 35. 36. 42.
      48. 45. 54. 98. 140. 139. 109. 134. 134. 137. 139. 141. 141. 110.
      112. 113. 78. 22. 37. 64. 67. 61. 47. 39. 41. 37. 49. 47. 40. 33.
      29. 32. 43. 53. 59. 66. 85. 95. 99. 95. 97. 100. 97. 86. 66. 55.
      47. 37. 42. 59. 58. 58. 62. 77. 127. 139. 122. 136. 134. 135. 136.
      137. 139. 103. 99. 107. 83. 27. 39. 61. 67. 53. 48. 51. 56. 67.
      74. 71. 71. 66. 57. 55. 62. 67. 66. 70. 82. 91. 93. 93. 97. 96.
      93. 87. 77. 76. 69. 59. 68. 76. 85. 85. 84. 92. 127. 135. 127.
      139. 136. 138. 139. 137. 142. 74. 74. 72. 80. 31. 47. 60. 68. 60.
      53. 61. 68. 70. 70. 49. 44. 36. 32. 41. 53. 63. 71. 74. 82. 89.
      91. 91. 98. 97. 95. 86. 78. 58. 45. 32. 26. 35. 59. 82. 93. 107.
      130. 133. 133. 162. 143. 137. 138. 135. 137. 67. 67. 68. 61. 29.
      50. 67. 60. 59. 61. 67. 63. 50. 34. 47. 62. 38. 19. 22. 29. 42.
      49. 54. 72. 83. 88. 91. 96. 92. 76. 62. 47. 64. 75. 35. 22. 28.
      36. 51. 84. 110. 139. 134. 118. 117. 134. 136. 137. 138. 138. 62.
      60. 68. 55. 30. 46. 65. 64. 67. 63. 62. 51. 38. 42. 66. 78. 60.
      44. 25. 42. 44. 49. 48. 53. 68. 86. 96. 99. 81. 60. 59. 62. 88.
      104. 84. 39. 55. 52. 47. 84. 111. 140. 132. 99. 107. 134. 132.
      134. 135. 136. 63. 65. 72. 63. 33. 52. 65. 71. 70. 70. 53. 42. 44.
      46. 58. 64. 78. 63. 51. 48. 42. 47. 52. 51. 57. 78. 95. 97. 82.
      68. 56. 66. 65. 93. 90. 76. 77. 83. 76. 88. 111. 140. 136. 109.
      112. 134. 135. 134. 133. 134. 60. 65. 71. 58. 29. 50. 67. 68. 70.
      69. 61. 54. 54. 58. 59. 61. 62. 67. 55. 52. 52. 54. 49. 44. 60.
      77. 95. 105. 88. 60. 57. 63. 66. 66. 70. 72. 84. 107. 112. 111.
      122. 145. 134. 119. 118. 132. 132. 133. 133. 132. 60. 68. 63. 57.
      39. 51. 66. 72. 70. 70. 72. 65. 66. 65. 70. 74. 74. 76. 66. 62.
      64. 51. 49. 53. 69. 81. 98. 107. 111. 77. 68. 68. 71. 70. 78. 90.
      103. 123. 133. 139. 139. 148. 135. 117. 128. 135. 136. 134. 133.
      133. 66. 71. 62. 54. 33. 51. 66. 67. 74. 76. 74. 68. 68. 67. 71.
      74. 77. 74. 73. 69. 62. 65. 64. 63. 70. 85. 96. 113. 120. 101. 89.
      80. 79. 74. 77. 93. 109. 129. 141. 146. 148. 150. 129. 111. 133.
      129. 131. 136. 132. 134. 61. 68. 59. 63. 38. 49. 65. 72. 73. 74.
      80. 74. 75. 74. 74. 79. 75. 81. 76. 72. 79. 77. 66. 64. 68. 78.
      93. 113. 133. 119. 106. 97. 96. 92. 90. 101. 114. 130. 146. 152.
      153. 155. 123. 116. 134. 134. 134. 134. 134. 134. 70. 57. 60. 51.
      36. 42. 71. 69. 76. 77. 77. 74. 74. 71. 74. 77. 75. 79. 75. 77.
      77. 68. 67. 66. 67. 81. 94. 119. 135. 126. 116. 107. 105. 105.
      114. 114. 113. 126. 134. 141. 147. 152. 125. 127. 136. 133. 132.
      135. 134. 134. 85. 62. 61. 49. 30. 31. 60. 69. 69. 79. 79. 81. 74.
      76. 79. 76. 75. 78. 79. 76. 79. 74. 69. 68. 73. 86. 98. 125. 141.
      137. 125. 118. 116. 118. 124. 128. 125. 124. 128. 134. 141. 149.
      118. 123. 135. 131. 132. 134. 134. 135. 84. 70. 60. 64. 39. 35.
      59. 70. 68. 79. 81. 74. 72. 77. 82. 83. 81. 84. 86. 83. 79. 64.
      56. 66. 72. 85. 99. 121. 144. 145. 124. 109. 116. 128. 129. 137.
      136. 130. 128. 130. 139. 144. 111. 134. 139. 132. 132. 132. 133.
      133. 81. 76. 63. 59. 44. 30. 48. 71. 72. 80. 78. 77. 76. 81. 76.
      83. 83. 86. 83. 79. 63. 59. 63. 71. 77. 82. 93. 111. 138. 151.
      145. 107. 91. 112. 124. 132. 139. 139. 128. 126. 133. 140. 112.
      148. 136. 131. 132. 132. 133. 131. 82. 84. 71. 66. 42. 22. 33. 65.
      78. 72. 76. 73. 77. 81. 81. 85. 86. 84. 79. 75. 63. 68. 69. 74.
      79. 81. 90. 104. 134. 147. 150. 142. 84. 93. 109. 123. 130. 139.
      128. 125. 130. 133. 99. 135. 131. 129. 130. 133. 133. 134. 84. 88.
      87. 81. 60. 24. 28. 50. 70. 78. 78. 76. 72. 78. 83. 88. 83. 78.
      73. 72. 63. 68. 65. 78. 81. 89. 91. 100. 119. 138. 144. 141. 98.
      79. 93. 114. 125. 135. 134. 126. 129. 123. 104. 124. 127. 129.
      130. 132. 130. 132. 88. 91. 98. 103. 89. 31. 24. 38. 61. 72. 77.
      74. 75. 78. 80. 85. 76. 72. 77. 67. 53. 39. 37. 58. 76. 91. 93.
      94. 107. 118. 112. 87. 89. 82. 87. 105. 119. 134. 132. 123. 125.
      109. 107. 126. 128. 128. 130. 131. 133. 131. 124. 131. 136. 138.
      117. 36. 26. 25. 49. 71. 75. 74. 71. 74. 78. 81. 75. 62. 62. 49.
      31. 21. 18. 21. 40. 72. 79. 80. 74. 51. 34. 52. 76. 79. 82. 95.
      115. 125. 128. 122. 117. 86. 111. 127. 128. 130. 131. 133. 130.
      133. 133. 132. 138. 137. 124. 51. 22. 22. 36. 59. 74. 72. 72. 75.
      77. 76. 67. 44. 36. 26. 22. 18. 12. 16. 16. 31. 40. 35. 27. 20.
      24. 37. 50. 61. 71. 92. 108. 125. 126. 120. 100. 67. 113. 126.
      128. 128. 129. 130. 130. 130. 134. 133. 134. 134. 133. 67. 21. 17.
      24. 40. 59. 68. 69. 75. 78. 71. 44. 25. 22. 17. 20. 20. 26. 26.
      24. 22. 27. 23. 25. 23. 25. 29. 39. 44. 57. 86. 106. 126. 122. 96.
      73. 66. 119. 127. 127. 126. 125. 129. 129. 128. 135. 135. 133.
      134. 134. 78. 21. 22. 17. 28. 37. 52. 72. 74. 81. 62. 31. 20. 16.
      21. 35. 49. 51. 52. 51. 55. 52. 57. 53. 46. 49. 41. 35. 33. 47.
      75. 102. 117. 102. 63. 48. 80. 120. 125. 124. 128. 128. 132. 129.
      129. 133. 139. 138. 136. 131. 80. 25. 19. 17. 23. 25. 32. 51. 69.
      66. 42. 24. 21. 25. 36. 53. 48. 56. 59. 72. 59. 62. 61. 59. 51.
      58. 54. 39. 33. 40. 76. 102. 107. 75. 54. 49. 101. 126. 122. 128.
      124. 128. 131. 129. 128. 135. 137. 136. 138. 124. 74. 25. 16. 19.
      18. 24. 31. 39. 47. 50. 36. 22. 20. 38. 48. 43. 31. 41. 59. 80.
      76. 84. 85. 59. 39. 47. 53. 46. 33. 37. 75. 100. 92. 58. 49. 58.
      109. 122. 125. 127. 128. 125. 129. 130. 127. 129. 127. 135. 136.
      119. 78. 26. 17. 22. 18. 23. 27. 34. 45. 45. 35. 26. 30. 47. 43.
      31. 36. 42. 38. 52. 42. 51. 48. 44. 34. 32. 50. 48. 41. 32. 74.
      92. 80. 50. 41. 72. 118. 122. 124. 125. 126. 125. 128. 127. 126.
      127. 129. 131. 133. 120. 77. 32. 15. 18. 20. 23. 24. 31. 36. 37.
      31. 36. 33. 50. 39. 22. 31. 44. 52. 58. 50. 53. 51. 43. 33. 30.
      40. 57. 49. 39. 67. 78. 69. 44. 41. 94. 122. 121. 119. 122. 125.
      124. 125. 124. 126. 125. 129. 121. 131. 119. 73. 41. 17. 14. 18.
      18. 19. 28. 33. 43. 36. 30. 35. 55. 48. 37. 38. 50. 69. 68. 65.
      68. 57. 44. 36. 41. 51. 58. 52. 53. 73. 66. 60. 51. 54. 109. 121.
      122. 121. 124. 121. 124. 127. 126. 125. 128. 128. 125. 116. 93.
      63. 49. 19. 13. 18. 15. 16. 24. 39. 49. 35. 27. 42. 55. 54. 45.
      49. 42. 42. 50. 50. 50. 40. 44. 51. 57. 68. 81. 63. 58. 71. 65.
      58. 46. 72. 117. 121. 122. 120. 124. 120. 122. 125. 124. 122. 124.
      127. 121. 103. 66. 67. 60. 33. 15. 14. 16. 19. 28. 39. 41. 29. 30.
      52. 61. 61. 48. 52. 50. 51. 53. 52. 53. 52. 56. 60. 74. 84. 76.
      61. 52. 69. 64. 49. 37. 94. 119. 122. 119. 120. 121. 123. 124.
      123. 123. 124. 118. 98. 88. 93. 66. 62. 63. 40. 17. 15. 14. 15.
      22. 30. 28. 21. 25. 48. 60. 59. 55. 46. 50. 54. 56. 55. 53. 55.
      59. 68. 76. 81. 75. 64. 49. 59. 45. 37. 45. 106. 118. 118. 122.
      123. 121. 120. 124. 123. 125. 123. 84. 90. 85. 88. 72. 65. 62. 54.
      32. 14. 13. 12. 16. 19. 19. 16. 23. 28. 49. 59. 50. 42. 44. 46.
      47. 49. 49. 50. 57. 71. 71. 67. 53. 37. 31. 40. 32. 27. 76. 111.
      117. 120. 120. 116. 121. 117. 121. 122. 124. 124. 79. 86. 79. 90.
      77. 67. 63. 59. 45. 26. 16. 18. 17. 18. 15. 15. 16. 23. 35. 43.
      44. 35. 33. 22. 19. 20. 23. 32. 45. 56. 53. 42. 40. 28. 30. 28.
      26. 52. 109. 113. 114. 116. 118. 120. 119. 119. 120. 122. 123.
      121. 79. 83. 77. 88. 82. 70. 67. 64. 61. 49. 27. 19. 14. 14. 18.
      19. 18. 22. 27. 34. 43. 35. 22. 14. 18. 16. 18. 24. 43. 51. 42.
      29. 21. 25. 29. 33. 38. 94. 114. 115. 117. 119. 121. 122. 119.
      117. 119. 122. 120. 122. 84. 87. 79. 81. 87. 70. 68. 63. 59. 56.
      45. 27. 13. 11. 11. 13. 17. 22. 19. 21. 23. 30. 29. 23. 21. 19.
      22. 25. 32. 40. 32. 22. 24. 24. 20. 35. 88. 167. 162. 146. 129.
      119. 118. 119. 118. 119. 120. 120. 120. 123. 78. 84. 86. 75. 83.
      77. 68. 67. 62. 62. 54. 44. 33. 23. 18. 18. 16. 14. 15. 15. 25.
      25. 22. 27. 28. 27. 24. 28. 32. 30. 25. 22. 21. 23. 24. 74. 169.
      189. 179. 178. 171. 160. 129. 119. 120. 121. 120. 121. 120. 121.
      79. 87. 85. 72. 80. 85. 69. 70. 67. 63. 60. 55. 47. 40. 26. 18.
      17. 17. 19. 17. 22. 19. 28. 27. 25. 27. 20. 22. 26. 24. 24. 26.
      26. 30. 51. 145. 157. 186. 184. 171. 179. 187. 184. 168. 157. 144.
      129. 124. 122. 123.</_>
    <_>
      121. 93. 27. 20. 21. 20. 14. 21. 39. 56. 64. 73. 77. 83. 78. 81.
      86. 84. 84. 86. 86. 81. 82. 82. 82. 81. 72. 53. 38. 47. 48. 49.
      60. 66. 74. 93. 115. 124. 129. 128. 129. 105. 47. 37. 39. 84. 134.
      140. 142. 143. 118. 86. 23. 14. 18. 16. 16. 32. 60. 65. 70. 73.
      75. 78. 79. 89. 88. 85. 92. 94. 93. 90. 91. 87. 91. 86. 85. 77.
      53. 52. 59. 65. 73. 84. 97. 102. 117. 129. 144. 148. 145. 144. 80.
      38. 40. 80. 133. 140. 138. 142. 119. 89. 22. 13. 16. 14. 16. 42.
      67. 68. 74. 76. 80. 81. 80. 90. 87. 94. 88. 96. 94. 92. 95. 97.
      93. 93. 92. 86. 71. 52. 66. 79. 87. 94. 100. 112. 120. 137. 154.
      154. 153. 156. 129. 46. 44. 87. 135. 142. 143. 142. 118. 80. 21.
      16. 18. 19. 32. 53. 69. 75. 76. 71. 82. 82. 86. 90. 91. 92. 95.
      97. 99. 100. 97. 97. 94. 96. 94. 87. 85. 71. 82. 96. 97. 98. 104.
      114. 128. 137. 146. 153. 158. 158. 155. 81. 54. 83. 132. 139. 141.
      142. 112. 67. 15. 15. 15. 20. 31. 58. 70. 74. 75. 80. 78. 82. 87.
      91. 93. 95. 94. 97. 96. 97. 97. 96. 96. 95. 96. 89. 93. 91. 98.
      100. 102. 99. 109. 117. 124. 133. 144. 154. 155. 160. 160. 105.
      52. 71. 125. 139. 141. 140. 112. 47. 18. 14. 13. 13. 37. 54. 64.
      75. 69. 80. 84. 87. 89. 89. 93. 98. 98. 94. 95. 96. 98. 95. 98.
      99. 97. 100. 100. 96. 96. 100. 104. 106. 112. 117. 125. 131. 141.
      147. 153. 154. 160. 126. 57. 67. 125. 139. 140. 142. 113. 57. 20.
      17. 16. 21. 39. 59. 68. 68. 72. 74. 83. 85. 87. 86. 93. 97. 95.
      96. 96. 95. 100. 97. 99. 99. 98. 103. 97. 101. 98. 102. 106. 111.
      112. 116. 128. 135. 137. 144. 151. 153. 157. 137. 67. 75. 128.
      136. 140. 141. 114. 64. 20. 12. 17. 27. 45. 61. 67. 66. 70. 82.
      77. 80. 86. 89. 90. 91. 94. 93. 95. 92. 97. 95. 95. 97. 98. 102.
      100. 103. 101. 106. 103. 108. 109. 120. 127. 130. 134. 142. 147.
      150. 154. 141. 71. 72. 132. 137. 139. 137. 118. 66. 25. 17. 22.
      26. 42. 59. 65. 79. 77. 79. 81. 84. 88. 90. 92. 91. 98. 97. 99.
      94. 98. 99. 98. 99. 97. 101. 102. 106. 106. 108. 106. 109. 114.
      123. 131. 140. 144. 148. 148. 150. 154. 143. 76. 82. 134. 138.
      137. 138. 117. 79. 21. 21. 23. 34. 52. 63. 67. 73. 77. 74. 83. 90.
      89. 92. 96. 97. 98. 95. 102. 100. 98. 95. 97. 101. 101. 101. 101.
      106. 107. 108. 107. 113. 116. 125. 135. 140. 143. 146. 148. 148.
      151. 139. 80. 92. 135. 137. 141. 141. 112. 93. 22. 24. 22. 38. 54.
      65. 67. 71. 72. 77. 86. 85. 89. 92. 95. 95. 99. 102. 103. 104.
      102. 96. 101. 98. 104. 107. 104. 108. 106. 107. 109. 111. 112.
      122. 129. 135. 137. 148. 147. 147. 149. 139. 88. 100. 136. 135.
      140. 140. 115. 104. 29. 20. 26. 39. 58. 63. 65. 66. 69. 64. 59.
      64. 74. 80. 86. 88. 95. 94. 94. 100. 102. 100. 99. 101. 104. 106.
      104. 105. 103. 106. 109. 103. 97. 105. 106. 111. 112. 115. 124.
      144. 151. 146. 95. 116. 131. 137. 138. 139. 111. 108. 36. 19. 32.
      49. 62. 63. 63. 60. 52. 44. 41. 43. 53. 51. 57. 62. 63. 72. 74.
      85. 97. 98. 101. 100. 100. 105. 106. 104. 100. 100. 92. 84. 73.
      73. 68. 72. 74. 71. 79. 110. 145. 144. 99. 121. 133. 137. 138.
      138. 113. 111. 48. 18. 34. 54. 63. 67. 56. 50. 39. 33. 30. 26. 30.
      33. 28. 33. 34. 42. 53. 62. 82. 93. 99. 102. 104. 107. 105. 101.
      101. 91. 76. 52. 41. 36. 33. 36. 39. 45. 49. 77. 126. 148. 103.
      127. 131. 136. 136. 139. 109. 109. 67. 18. 40. 63. 66. 64. 51. 39.
      34. 29. 38. 47. 45. 35. 33. 30. 32. 37. 43. 50. 64. 79. 94. 95.
      97. 95. 100. 101. 97. 83. 62. 50. 41. 33. 40. 52. 61. 57. 56. 67.
      102. 144. 110. 127. 132. 133. 137. 134. 109. 110. 77. 20. 40. 62.
      65. 67. 50. 41. 49. 62. 71. 77. 73. 72. 67. 54. 53. 56. 59. 63.
      66. 76. 88. 92. 90. 91. 93. 99. 94. 78. 79. 75. 65. 61. 71. 79.
      84. 84. 80. 80. 106. 141. 119. 132. 134. 137. 137. 135. 84. 96.
      87. 29. 37. 63. 61. 55. 49. 53. 69. 71. 76. 69. 57. 44. 38. 35.
      40. 53. 58. 72. 75. 77. 87. 87. 91. 88. 93. 94. 91. 85. 83. 65.
      45. 34. 31. 36. 66. 83. 91. 96. 118. 141. 126. 146. 148. 138. 137.
      136. 69. 63. 60. 24. 36. 66. 64. 63. 58. 66. 65. 64. 59. 36. 37.
      45. 30. 20. 23. 33. 38. 47. 59. 69. 77. 82. 92. 92. 95. 94. 78.
      63. 53. 58. 68. 37. 28. 31. 35. 60. 82. 99. 127. 142. 123. 145.
      141. 135. 132. 136. 61. 61. 59. 27. 43. 66. 64. 62. 67. 64. 59.
      49. 36. 44. 63. 70. 39. 27. 21. 30. 40. 50. 46. 52. 61. 77. 89.
      98. 95. 75. 60. 50. 60. 86. 90. 55. 31. 38. 45. 42. 71. 98. 130.
      145. 108. 105. 122. 133. 134. 133. 61. 68. 56. 31. 46. 63. 64. 66.
      66. 62. 50. 44. 37. 48. 65. 82. 78. 47. 33. 44. 42. 48. 59. 54.
      58. 71. 88. 96. 97. 74. 58. 54. 62. 80. 109. 95. 48. 60. 64. 53.
      76. 100. 129. 147. 106. 95. 128. 135. 135. 135. 65. 68. 55. 28.
      47. 67. 71. 68. 71. 59. 53. 50. 50. 52. 56. 53. 63. 61. 50. 47.
      51. 54. 58. 46. 51. 70. 89. 101. 102. 75. 59. 61. 57. 61. 71. 70.
      69. 67. 93. 103. 94. 107. 135. 149. 114. 104. 128. 133. 132. 137.
      69. 67. 58. 31. 51. 65. 64. 70. 76. 67. 58. 61. 61. 63. 64. 64.
      65. 71. 65. 62. 57. 47. 46. 56. 59. 69. 89. 101. 112. 90. 65. 63.
      66. 65. 70. 67. 79. 93. 112. 128. 128. 129. 142. 151. 121. 118.
      134. 132. 133. 135. 66. 62. 54. 34. 52. 64. 65. 72. 75. 70. 66.
      63. 69. 69. 73. 68. 72. 76. 75. 70. 64. 53. 59. 61. 63. 75. 88.
      101. 114. 109. 83. 71. 71. 70. 76. 78. 85. 103. 123. 138. 138.
      139. 145. 149. 114. 126. 134. 131. 134. 133. 67. 58. 61. 40. 53.
      70. 70. 72. 69. 77. 75. 66. 71. 78. 71. 75. 78. 77. 75. 67. 68.
      66. 66. 66. 62. 75. 87. 99. 120. 121. 108. 95. 88. 86. 82. 88. 98.
      110. 125. 142. 148. 149. 151. 149. 107. 128. 134. 130. 135. 135.
      66. 60. 64. 39. 47. 65. 71. 72. 76. 75. 73. 77. 73. 74. 76. 79.
      76. 76. 75. 74. 76. 74. 70. 72. 63. 74. 87. 101. 128. 131. 118.
      111. 102. 102. 101. 96. 97. 114. 128. 139. 147. 155. 154. 149.
      107. 129. 131. 134. 133. 135. 58. 63. 55. 40. 39. 63. 73. 74. 74.
      73. 69. 74. 77. 76. 79. 79. 78. 77. 77. 77. 78. 71. 65. 64. 71.
      77. 86. 107. 132. 138. 126. 116. 108. 103. 110. 120. 120. 114.
      122. 132. 137. 145. 151. 144. 113. 131. 133. 130. 132. 133. 59.
      58. 52. 37. 34. 61. 70. 73. 74. 73. 76. 78. 76. 74. 74. 78. 78.
      80. 80. 79. 81. 79. 65. 60. 70. 75. 82. 103. 130. 147. 138. 122.
      123. 120. 122. 128. 133. 131. 129. 128. 131. 139. 145. 139. 112.
      133. 131. 130. 134. 134. 60. 56. 61. 34. 27. 54. 64. 70. 76. 76.
      75. 74. 74. 76. 79. 79. 79. 79. 86. 86. 81. 67. 59. 59. 73. 79.
      86. 104. 128. 147. 148. 123. 107. 119. 127. 128. 137. 137. 135.
      128. 126. 130. 143. 129. 114. 143. 133. 133. 133. 131. 67. 56. 63.
      39. 23. 47. 64. 66. 78. 80. 74. 71. 75. 76. 77. 80. 83. 86. 86.
      78. 68. 63. 59. 73. 78. 79. 84. 98. 118. 143. 152. 144. 102. 97.
      113. 122. 124. 139. 140. 134. 128. 128. 138. 122. 131. 150. 131.
      131. 132. 134. 79. 65. 62. 47. 23. 29. 49. 65. 74. 75. 75. 77. 74.
      78. 79. 83. 86. 85. 76. 70. 60. 69. 70. 75. 80. 83. 87. 91. 111.
      138. 150. 151. 140. 87. 93. 106. 119. 131. 140. 134. 126. 129.
      136. 109. 123. 137. 128. 132. 129. 129. 87. 85. 74. 52. 28. 25.
      47. 67. 72. 76. 78. 73. 76. 78. 77. 83. 85. 83. 74. 74. 65. 68.
      67. 71. 77. 85. 91. 97. 103. 125. 136. 143. 140. 100. 82. 98. 109.
      123. 132. 136. 129. 128. 132. 99. 115. 131. 131. 131. 129. 128.
      93. 93. 91. 81. 32. 24. 32. 58. 68. 79. 80. 81. 76. 73. 82. 85.
      83. 70. 70. 68. 59. 49. 45. 51. 68. 79. 95. 93. 96. 105. 121. 111.
      91. 85. 83. 91. 103. 118. 129. 134. 125. 125. 125. 89. 125. 128.
      130. 130. 131. 129. 102. 111. 122. 113. 38. 23. 21. 42. 65. 76.
